tree
version=v4
num_class=1
num_tree_per_iteration=1
label_index=0
max_feature_idx=77
objective=binary sigmoid:1
feature_names=Dst_Port Protocol Flow_Duration Tot_Fwd_Pkts Tot_Bwd_Pkts TotLen_Fwd_Pkts TotLen_Bwd_Pkts Fwd_Pkt_Len_Max Fwd_Pkt_Len_Min Fwd_Pkt_Len_Mean Fwd_Pkt_Len_Std Bwd_Pkt_Len_Max Bwd_Pkt_Len_Min Bwd_Pkt_Len_Mean Bwd_Pkt_Len_Std Flow_Byts/s Flow_Pkts/s Flow_IAT_Mean Flow_IAT_Std Flow_IAT_Max Flow_IAT_Min Fwd_IAT_Tot Fwd_IAT_Mean Fwd_IAT_Std Fwd_IAT_Max Fwd_IAT_Min Bwd_IAT_Tot Bwd_IAT_Mean Bwd_IAT_Std Bwd_IAT_Max Bwd_IAT_Min Fwd_PSH_Flags Bwd_PSH_Flags Fwd_URG_Flags Bwd_URG_Flags Fwd_Header_Len Bwd_Header_Len Fwd_Pkts/s Bwd_Pkts/s Pkt_Len_Min Pkt_Len_Max Pkt_Len_Mean Pkt_Len_Std Pkt_Len_Var FIN_Flag_Cnt SYN_Flag_Cnt RST_Flag_Cnt PSH_Flag_Cnt ACK_Flag_Cnt URG_Flag_Cnt CWE_Flag_Count ECE_Flag_Cnt Down/Up_Ratio Pkt_Size_Avg Fwd_Seg_Size_Avg Bwd_Seg_Size_Avg Fwd_Byts/b_Avg Fwd_Pkts/b_Avg Fwd_Blk_Rate_Avg Bwd_Byts/b_Avg Bwd_Pkts/b_Avg Bwd_Blk_Rate_Avg Subflow_Fwd_Pkts Subflow_Fwd_Byts Subflow_Bwd_Pkts Subflow_Bwd_Byts Init_Fwd_Win_Byts Init_Bwd_Win_Byts Fwd_Act_Data_Pkts Fwd_Seg_Size_Min Active_Mean Active_Std Active_Max Active_Min Idle_Mean Idle_Std Idle_Max Idle_Min
feature_infos=[0:65534] [0:17] [0:119999957] [1:156781] [0:21725] [0:5016992] [0:31701250] [0:1880] [0:1296] [0:1456.355556] [0:1085.418506] [0:1935] [0:503] [0:1826.9423076922999] [0:1329.3607489999999] [0:inf] [0.016691357399999999:inf] [0:119822490] [0:80436627.130852997] [0:119822490] [0:119822490] [0:120000000] [0:119822490] [0:84575309.686109036] [0:119822490] [0:119822490] [0:120000000] [0:119464234] [0:83000000] [0:119464234] [0:119464234] [0:1] none none none [0:1254248] [0:434512] [0:3000000] [0:2000000] [0:788] [0:1935] [0:1425.446809] [0:840.76155949999998] [0:706880] [0:1] [0:1] [0:1] [0:1] [0:1] [0:1] none [0:1] [0:23] [0:1456.4347829999999] [0:1456.355556] [0:1826.9423076922999] none none none none none none [1:156781] [0:5016992] [0:21725] [0:31701250] [-1:65535] [-1:65535] [0:156780] [0:44] [0:82500000] [0:54000000] [0:96100000] [0:82500000] [0:119822490] [0:59100000] [0:119822490] [0:119822490]
tree_sizes=6453 6420 5084 6064 5634 6127 5982 6907 7985 7656 8735 10524 8807 11106 10397 8904 10224 9840 10748 9958 10201 10468 10769 10195 9319 10837 9775 10803 10399 10981 11006 10834 10328 10831 10934 10808 10576 10780 11000 10709 10769 10926 10988 10804 11026 10880 10880 10739 10887 10868 11074 10988 10877 10949 10883 10874 10813 10758 10776 10931 10773 10597 10724 10680 10704 10886 10837 10721 10679 10660 10082 10798 10611 10623 10704 10670 10694 10556 10572 10542 10677 10339 10608 10396 10491 10391 10747 10448 10194 10623 10625 10265 9499 10545 10254 8160 8877 8619 9221 9679 8371 9669 9810 9976 10349 10563 7543 9391 9508 6528 10482 10537 10660 10536 10554 10433 10621 10614 10486 10488 10297 10599

Tree=0
num_leaves=61
num_cat=0
split_feature=63 0 2 0 46 35 25 36 18 0 0 35 67 0 35 35 0 47 67 35 37 0 0 14 6 36 43 74 3 0 2 3 6 35 13 10 10 13 24 46 9 19 19 19 13 42 63 14 30 64 37 35 42 42 24 17 2 16 37 2
split_gain=12800.2 11076.3 5350.98 2686.73 1453.33 7856.4 1289.96 5120.69 1258.22 1120.29 2657.16 809.661 742.44 678.974 599.059 341.246 333.281 191.518 155.758 142.962 92.3086 77.7462 61.8611 653.279 632.185 482.083 102.433 81.496 61.837 59.6991 49.6968 44.2843 36.3983 34.3035 29.606 22.4998 30.548 19.2664 18.1905 16.8015 15.8273 8.6237 37.676 13.2009 6.57686 5.60656 4.60893 3.61373 4.13634 3.33907 2.67319 2.37641 2.02873 17.8397 1.64995 1.50897 1.34481 1.23127 0.796378 0.671888
threshold=21.000000000000004 80.500000000000014 45405294.500000007 42.500000000000007 1.0000000180025095e-35 82.000000000000014 417.50000000000006 18.000000000000004 77922.92432632776 11009.000000000002 8074.5000000000009 62.000000000000007 210.50000000000003 8081.0000000000009 26.000000000000004 26.000000000000004 68.500000000000014 1.0000000180025095e-35 32749.500000000004 22.000000000000004 4667.0819700155507 443.50000000000006 80.500000000000014 320.40665072575007 1041.5000000000002 102.00000000000001 85.333333331650024 10045628.340909092 21.500000000000004 435.00000000000006 30003.500000000004 1.5000000000000002 68.500000000000014 62.000000000000007 225.85714287857147 23.459184411600003 23.276597689512496 62.029411764705891 3969772.5000000005 1.0000000180025095e-35 10.333333331650001 10000064.500000002 9999998.0000000019 10090805.500000002 261.92307692308856 374.63277926290129 47.500000000000007 25.660439216350003 160040.00000000003 34.500000000000007 333333.3333166666 50.000000000000007 16.165807538654764 16.209139939698389 10202745.000000002 3630077.5445075757 731.50000000000011 86956.521739130432 333333.3333166666 485.50000000000006
decision_type=2 2 2 2 2 2 2 2 2 2 2 2 2 2 2 2 2 2 2 2 2 2 2 2 2 2 2 2 2 2 2 2 2 2 2 2 2 2 2 2 2 2 2 2 2 2 2 2 2 2 2 2 2 2 2 2 2 2 2 2
left_child=1 2 6 28 22 12 7 11 16 10 15 -1 -6 -12 -9 19 -8 51 21 -3 -21 41 23 26 25 -25 32 37 -2 -17 -14 -15 46 55 -20 36 40 -28 -10 -31 -24 42 -7 -43 -44 -36 -5 48 52 54 -22 57 -39 -54 -45 -4 59 -11 -19 -38
right_child=3 9 33 4 5 18 8 14 38 17 13 -13 30 31 -16 29 -18 58 34 20 50 -23 35 24 -26 -27 27 -29 -30 39 -32 -33 -34 -35 45 -37 56 47 -40 -41 -42 43 44 49 -46 -47 -48 -49 -50 -51 -52 -53 53 -55 -56 -57 -58 -59 -60 -61
leaf_value=-1.2332461132633441 -1.0727327967574525 -1.2191705767865313 -1.1844398488988035 -1.1779861298264933 -1.2146353707455007 -1.2005589886320933 -1.1814398887701785 -1.1916698397669943 -1.1518431798176023 -1.2303570898513918 -0.91081959661194256 -0.92374866768684449 -0.91063824538878246 -1.1129267883422869 -0.90955984404197254 -1.1345367095602599 -0.91748765288437073 -1.1036473046051465 -1.2376564732523736 -1.0599008729154302 -1.127962546293602 -1.0690689770069892 -1.1873804391483715 -1.2263550644548966 -1.2353454783304885 -0.91873523592461948 -1.2382225854309181 -1.102247864627165 -0.91255446864018253 -1.2272547508842502 -1.0618904772814131 -1.2248781592831468 -1.2207214285838068 -1.1553508301061557 -1.2104551831453023 -1.2337134203360562 -1.1712363049586283 -1.2366427428330389 -1.2149849182444372 -1.174575395880628 -1.2297382620526949 -1.2348645785731871 -1.1607832152174866 -1.1763425526801088 -1.1203410285144701 -1.1607832152174866 -1.1579994225896335 -1.2384959746142241 -1.1799609134309959 -1.1607832152174866 -1.1581296664305147 -1.1817509514863553 -1.1761820800087286 -1.2225572686138073 -1.2039868017956101 -1.2329960452758382 -1.1923116168478802 -1.2168083005845176 -1.1457156005976779 -1.1607832152174866
leaf_weight=331.29461574554443 16.710035443305969 49.40358304977417 18.889605283737183 193.80008497834206 30.877239406108856 181.44918921589851 15.801881343126295 26.881361365318298 16.3467738032341 867.10553485155106 192.16540759801865 32.511916786432266 389.77973979711533 29.969085305929184 617.90804976224899 24.338529884815216 1326.0866170823574 33.601701706647873 1118.6642206013203 84.458331316709518 19.071236103773117 15.620250523090361 60.119801431894302 23.067114144563675 69.382973253726959 69.746234893798828 707.08878239989281 16.165142983198166 110.43153858184814 453.89541926980019 15.620250523090361 20.705913484096527 97.17248871922493 17.073297083377838 169.09829345345497 2249.86096778512 39.59551876783371 202.33673352003098 45.770966649055481 36.144533187150955 311.86011800169945 62.844263732433319 38.142472207546234 42.86487352848053 19.797759383916855 15.801881343126295 28.697669565677643 211.9631669819355 25.428314805030823 17.073297083377838 77.374729335308075 21.069175124168396 45.589335829019547 1977.2331069111824 131.86397534608841 302.41531535983086 29.78745448589325 301.32553043961525 22.88548332452774 15.620250523090361
leaf_count=1824 92 272 104 1067 170 999 87 148 90 4774 1058 179 2146 165 3402 134 7301 185 6159 465 105 86 331 127 382 384 3893 89 608 2499 86 114 535 94 931 12387 218 1114 252 199 1717 346 210 236 109 87 158 1167 140 94 426 116 251 10886 726 1665 164 1659 126 86
internal_value=-1.16066 -1.08344 -1.00237 -1.20462 -1.20871 -1.16688 -0.97083 -1.0238 -0.933098 -1.18321 -1.13537 -1.20425 -0.937372 -0.962366 -0.921724 -1.1917 -0.920788 -1.2213 -1.22234 -1.13142 -1.10592 -1.19308 -1.22343 -1.2179 -1.10054 -0.997576 -1.22342 -1.22675 -0.930738 -1.21916 -0.915573 -1.16078 -1.18935 -1.22646 -1.23356 -1.23082 -1.21588 -1.22748 -1.19476 -1.2239 -1.22364 -1.1977 -1.18674 -1.2069 -1.14754 -1.20713 -1.17435 -1.22426 -1.22278 -1.19611 -1.1494 -1.22654 -1.22315 -1.22164 -1.19871 -1.23098 -1.17878 -1.22713 -1.11591 -1.16675
internal_weight=13735.6 4984.49 2750.98 8751.15 8624.01 2249.5 2412.6 1008.6 1404.01 2233.51 987.527 363.807 436.277 242.84 644.789 744.686 1341.89 1245.99 1813.22 230.308 180.904 509.656 6374.52 3667.67 162.196 92.8133 3505.47 3185.8 127.142 514.378 405.4 50.675 319.67 338.378 1303.56 2706.84 456.983 3169.64 62.1177 490.04 371.98 494.036 239.389 254.646 57.9402 184.9 222.498 2462.55 2250.59 191.802 96.446 1189.5 2225.16 2022.82 174.729 321.305 85.0032 1168.43 56.4872 55.2158
internal_count=75624 27443 15146 48181 47481 12385 13283 5553 7730 12297 5437 2003 2402 1337 3550 4100 7388 6860 9983 1268 996 2806 35096 20193 893 511 19300 17540 700 2832 2232 279 1760 1863 7177 14903 2516 17451 342 2698 2048 2720 1318 1402 319 1018 1225 13558 12391 1056 531 6549 12251 11137 962 1769 468 6433 311 304
is_linear=0
shrinkage=1


Tree=1
num_leaves=61
num_cat=0
split_feature=69 10 66 66 14 13 66 18 16 5 16 19 25 23 21 66 69 30 43 2 70 19 69 42 51 28 13 15 14 42 42 3 66 11 21 14 53 20 70 42 27 53 20 16 66 66 9 29 29 29 16 9 9 20 20 20 42 20 40 20
split_gain=11512.8 8605.49 6371.32 6399.75 4257.56 1065.25 3491.75 1742.91 1740.81 750.796 374.18 288.271 270.165 200.109 190.871 312.663 99.1295 85.9753 82.9479 71.4659 62.284 60.909 42.7591 32.4698 32.2072 114.652 68.7313 19.4463 19.0136 34.5477 22.7428 18.0876 15.137 13.6551 11.2449 10.3896 7.99111 6.03861 5.87037 3.84521 3.65724 3.41944 2.97973 7.272 2.6044 6.48681 6.81585 1.72219 41.192 2.27295 1.2807 1.11126 2.60373 0.817687 0.83816 4.87917 0.634242 0.20522 0.169153 0.0888478
threshold=30.000000000000004 412.89773862490006 32723.000000000004 32744.000000000004 465.68252980000005 35.083333335000006 1023.5000000000001 11700.449474588253 8736.350304477497 21.000000000000004 25.914038720650002 1201255.0000000002 39.500000000000007 878.11333850745007 815.00000000000011 2052.5000000000005 22.000000000000004 40.500000000000007 85.333333331650024 452.50000000000006 43537.780303030311 226421.50000000003 22.000000000000004 8.7976608930500024 1.0000000180025095e-35 132.37195048900003 225.85714287857147 531.85665958223183 63.018431125000006 16.165807538654764 18.475208612034013 36.500000000000007 258.50000000000006 1067.5000000000002 86.500000000000014 62.753485959474467 129.75595238095241 999475.50000000012 3000858.5000000005 680.60107084070012 10700384.863636352 40.875000000000007 204.50000000000003 666666.66668333358 255.50000000000003 256.50000000000006 25.666666668350004 9999982.5000000019 10000006.000000002 10099980.000000002 5.8688190226032591 10.333333331650001 25.666666668350004 515.50000000000011 369.50000000000006 316.50000000000006 16.209139939698389 340.50000000000006 516.50000000000011 957.50000000000011
decision_type=2 2 2 2 2 2 2 2 2 2 2 2 2 2 2 2 2 2 2 2 2 2 2 2 2 2 2 2 2 2 2 2 2 2 2 2 2 2 2 2 2 2 2 2 2 2 2 2 2 2 2 2 2 2 2 2 2 2 2 2
left_child=2 10 5 -4 -5 6 31 8 12 13 11 21 19 -7 -14 -16 34 -12 23 -8 -13 -2 27 -11 28 -26 33 -9 29 -20 56 32 44 36 -10 -32 41 -17 -24 47 -30 -27 43 -18 -1 51 -47 -28 -49 -50 -23 -46 -53 54 55 -25 -31 -57 -43 -55
right_child=1 -3 3 4 -6 9 7 22 16 18 17 20 14 -15 15 37 42 -19 24 -21 -22 50 38 53 25 26 39 -29 40 30 35 -33 -34 -35 -36 -37 -38 -39 -40 -41 -42 58 -44 -45 45 46 -48 48 49 -51 -52 52 -54 59 -56 57 -58 -59 -60 -61
leaf_value=-0.060855219935435044 0.088868103622053954 -0.077240673055012449 0.21086831198604117 -0.074625752971650167 0.2070557465889559 0.20032613431634416 0.10187221366595924 -0.063061986994986885 -0.05490977935407531 -0.058989536427936945 0.20926719347342726 0.19123907010828151 0.20794532026311954 -0.029301403795142213 0.19163144342016253 0 -0.011352925397963837 0.048004241831831461 -0.07636098252648793 -0.015198891998266359 0.057080944954128944 -0.056028218887774504 -0.014278495543845174 -0.019172385083220764 0.1074870171608745 -0.010917119296203622 -0.04400244014663824 0 -0.07282800740576581 -0.012681035947127051 -0.060149291889382707 0 -0.072032527284399434 -0.07350957648845266 0 0 0 -0.055647437412483465 0.027934407704577738 0 -0.021634652016397485 -0.070106483309931009 0.049038494661926273 0.021509728919934398 -0.032201496104584677 -0.067565789904829449 -0.014040748045211621 0.049317579452225153 -0.066354410681487994 -0.031962991777458732 -0.0061014325139605663 -0.067986558786109055 -0.011863041864932009 0 -0.030260992390232094 0 -0.035824341173455558 0.0060691267239287418 -0.041350898132814125 -0.003639745137852641
leaf_weight=1218.7184825986624 17.195864781737328 555.62950088083744 769.28386187553406 904.64894388616085 248.01596629619598 49.601499259471893 95.113704472780228 279.96532487869263 116.69531898200512 100.99102900922298 1438.4287407249212 82.49145582318306 388.7237840294838 16.291063368320465 54.132905051112175 16.169395968317986 19.533492922782898 16.842621490359306 613.96343111991882 19.105857595801353 22.871507331728935 24.51470373570919 27.296383902430534 97.234637051820755 13.797741577029226 20.586631938815117 326.73138739168644 16.469686523079872 1634.3164550811052 49.403385385870934 1996.5012154877186 21.70948600769043 651.83275434374809 581.99373890459538 18.74669174849987 16.06940108537674 18.240256950259209 18.703624337911606 18.7696872651577 17.153800174593925 19.637385845184326 70.088828340172768 20.030420407652855 122.8604539334774 178.33305272459984 139.82331949472427 22.510170638561249 18.26481805741787 27.274157851934433 146.7581240683794 15.652408689260481 38.082066684961319 16.357703924179077 15.4852297604084 40.327927350997925 20.179449886083603 76.565803483128548 20.541620403528214 77.761180713772774 23.239918187260628
leaf_count=6929 92 3181 3772 5173 1216 243 502 1591 663 574 7048 415 1902 90 268 88 106 89 3522 106 124 139 152 540 74 115 1839 90 9359 275 11360 121 3710 3336 106 92 101 106 102 95 112 399 106 672 994 798 125 99 156 822 86 218 91 86 224 112 436 114 439 129
internal_value=-0.000102963 0.127288 -0.0241071 0.0761626 -0.0136592 -0.0441532 -0.0175974 0.0641824 0.108766 -0.0594079 0.197677 0.106572 0.16858 0.140504 0.188943 0.10166 -0.00950843 0.207605 -0.0616544 0.0802772 0.165315 0 -0.0509289 -0.0300235 -0.0633632 -0.0538868 -0.055872 -0.0593185 -0.0661298 -0.0622582 -0.0580579 -0.0617705 -0.0622994 -0.0678807 -0.0479745 -0.0597517 -0.048711 -0.0331437 0 -0.0381016 -0.0723798 -0.0529107 0.0212324 0.0152906 -0.0581705 -0.0491314 -0.0617532 -0.0390708 -0.0292437 -0.0391248 -0.0430541 -0.039043 -0.0560099 -0.0152052 -0.0172534 -0.0115165 -0.0288204 0.00112413 -0.0570298 0
internal_weight=13724.3 2173.63 11550.6 1921.95 1152.66 9628.68 3519.68 1232.32 889.816 6109 1618 162.726 591.949 65.8926 477.73 89.0059 297.866 1455.27 6043.11 114.22 105.363 57.363 342.501 318 5725.11 1318.65 1304.85 296.435 4406.46 2752.5 2138.54 2287.37 2265.66 768.671 135.442 2012.57 186.677 34.873 46.0661 536.182 1653.95 168.437 162.424 142.394 1613.82 395.106 162.333 519.028 192.297 174.032 40.1671 232.773 54.4398 217.009 178.284 137.956 125.969 40.7211 147.85 38.7251
internal_count=75624 11174 64450 10161 6389 54289 19546 6560 4625 34743 7993 856 2972 333 2364 462 1653 7137 34410 608 539 317 1935 1779 32631 7475 7401 1681 25156 15685 12163 12986 12865 4390 769 11452 1054 194 254 3011 9471 953 884 778 9155 2226 923 2916 1077 978 225 1303 309 1205 990 766 711 226 838 215
is_linear=0
shrinkage=0.0603639


Tree=2
num_leaves=48
num_cat=0
split_feature=69 0 25 2 69 0 69 51 62 67 19 21 67 38 0 18 16 2 10 10 29 69 20 55 0 10 22 20 62 72 2 25 25 27 28 67 38 27 10 19 19 19 62 6 15 38 15
split_gain=9771.82 7791.51 3833.71 10038.5 1109.34 1010.26 755.002 615.545 3099.94 365.728 305.006 234.267 114.055 89.1078 50.7412 132.859 639.585 48.7869 34.9347 36.278 31.0803 26.1875 24.4582 20.6867 13.0055 12.5896 12.1759 11.5361 10.6278 7.49767 7.13098 4.50196 5.73347 3.60933 3.13672 2.91103 2.27125 2.03427 1.25538 0.867297 28.343 7.17479 2.32102 1.06293 0.729332 0.583159 0.339629
threshold=30.000000000000004 435.00000000000006 246.50000000000003 31382.000000000004 14.000000000000002 9108.0000000000018 22.000000000000004 1.0000000180025095e-35 3.5000000000000004 210.50000000000003 408.50000000000006 15563.500000000002 32749.500000000004 4434.58980022173 136.00000000000003 1.0000000180025095e-35 0.041404214800000012 1258143.0000000002 23.459184411600003 21.920310218400004 20963.000000000004 26.000000000000004 2.5000000000000004 225.85714287857147 443.50000000000006 228.12966238950003 71258.333333333358 159578.50000000003 6.5000000000000009 22978.500000000004 731.50000000000011 520.50000000000011 305.50000000000006 11825564.950000001 10017342.115902951 8047.5000000000009 333333.3333166666 521408.85000000009 231.56765010000001 10000064.500000002 9999998.0000000019 10090805.500000002 25.500000000000004 3873.5000000000005 153302.15780612253 166666.66668333355 512352.61478089908
decision_type=2 2 2 2 2 2 2 2 2 2 2 2 2 2 2 2 2 2 2 2 2 2 2 2 2 2 2 2 2 2 2 2 2 2 2 2 2 2 2 2 2 2 2 2 2 2 2
left_child=2 29 6 4 -4 10 7 18 9 -9 -6 -5 20 -8 15 16 -13 -18 19 28 -10 26 -12 -14 -20 -26 31 -3 -1 -2 44 32 -16 -28 -35 39 45 -23 -27 40 -22 -41 -43 -42 -21 -15 -46
right_child=1 27 3 11 5 -7 13 8 12 -11 22 14 23 36 21 -17 17 -19 24 30 35 37 -24 -25 25 38 33 -29 -30 -31 -32 -33 -34 34 -36 -37 -38 -39 -40 41 43 42 -44 -45 46 -47 -48
leaf_value=-0.059527310253777672 0.18093480433486239 -0.075595745610853748 -0.063088523681802483 0.16084455134710335 -0.037398835746155878 -0.054872996142951672 0.089609025009627974 -0.057666633680993791 0.043565570826077135 0.1769892664503612 0.078483126385228294 -0.072917678496917535 -0.073930788958844182 0.010291298063781873 -0.041147525718339989 -0.057858744459782743 0.032677961047022509 0.16793307567842197 -0.075821012604229882 0 -0.039802258384009692 0 0.17299603779183087 -0.043818831261427812 -0.063333196228366473 -0.0053326145957756045 -0.069619856283371265 -0.020038918081589644 0 0.09311616956995146 -0.041432138244955924 -0.054216517261216256 0 -0.047815104086865311 0 0 0.010126773719787888 -0.020516130534881986 -0.04114598523948218 -0.069380810962336198 0 -0.034326411590219943 0 0.024060481766452639 -0.013087691397974678 0.050455062711537275 0
leaf_weight=3921.3299765139818 1664.0283282101154 568.39126326143742 86.878497585654259 16.513654157519341 23.60780468583107 76.073908045887947 115.91529354453087 24.373826459050179 16.24344590306282 272.16407406330109 22.246519193053246 162.48054480552673 814.13437820971012 25.024068519473076 15.830894947052 753.38205289840698 18.153957292437553 56.353336900472641 972.52875824272633 15.314787194132803 140.70581166446209 15.9767999202013 1350.3054425567389 147.66925151646137 503.55911430716515 33.864807307720184 1108.9775146394968 27.113386303186417 15.812474772334097 18.701547548174858 44.686740145087242 36.881185173988342 26.992349252104759 28.75345516204834 15.590779095888136 16.298748776316643 118.63565392792225 21.160944148898125 14.808397367596625 41.740084528923035 22.653277322649956 132.42077544331551 15.383805364370344 18.220203518867493 35.334871679544449 17.122149929404259 21.950546473264694
leaf_count=23068 7542 3382 511 78 138 448 586 141 89 1235 111 967 4869 132 90 4414 90 260 5799 86 808 88 6154 853 2996 202 6578 153 91 97 259 217 152 170 91 93 643 119 88 246 127 759 86 97 200 92 129
internal_value=-0.00029013 0.113751 -0.0232034 0.0258544 0.143847 0.156261 -0.0482678 -0.0520245 -0.0195508 0.15675 0.167972 -0.0548647 -0.0581155 0.0489918 -0.0566299 -0.0454427 -0.00488255 0.139153 -0.0616494 -0.0582981 -0.0300056 -0.0651149 0.171707 -0.0696145 -0.0703524 -0.0601493 -0.0666575 -0.0735095 -0.0593249 0.180167 -0.0215736 -0.0357617 -0.01343 -0.0685476 -0.0353925 -0.0338261 0.0177967 -0.00722031 -0.0217172 -0.0349684 -0.026556 -0.0415647 -0.031621 0.0132338 -0.00565801 0.0330307 -0.00926485
internal_weight=13632.3 2278.23 11354.1 3836.16 1559.11 1472.23 7517.9 7241.2 1662.01 296.538 1396.16 2277.05 1365.47 276.697 2260.53 990.37 236.988 74.5073 5579.19 4054.43 403.666 1270.16 1372.55 961.804 1524.76 552.232 1233.03 595.505 3937.14 1682.73 117.287 79.7044 42.8232 1153.32 44.3442 387.423 160.782 37.1377 48.6732 371.124 181.579 189.545 147.805 40.8735 72.6002 42.1462 57.2854
internal_count=75624 11174 64450 20676 7362 6851 43774 42321 9403 1376 6403 13314 8027 1453 13236 5731 1317 350 32918 23833 2305 7505 6265 5722 9085 3286 7298 3535 23159 7639 674 459 242 6839 261 2216 867 207 290 2123 1032 1091 845 224 415 224 329
is_linear=0
shrinkage=0.0603639


Tree=3
num_leaves=57
num_cat=0
split_feature=5 69 20 2 67 67 7 7 25 19 2 17 69 69 24 43 17 5 42 30 13 9 42 67 42 67 19 35 4 2 65 76 35 15 18 9 9 52 15 38 20 27 17 20 20 30 38 38 16 42 38 38 75 25 9 15
split_gain=8558.52 5478.32 3529.81 4355.6 1356.68 7182.54 702.161 554.165 443.692 328.126 324.007 321.17 265.663 180.072 115.395 63.5026 66.491 55.371 54.8457 43.7663 39.6517 26.4662 24.0146 34.3407 22.6908 21.7343 21.5074 20.3842 17.562 15.4796 15.0252 10.2055 9.76398 9.75433 4.9218 5.42142 27.4733 4.05877 3.79483 3.30584 3.39328 3.0466 2.88504 2.71479 2.52355 2.48606 2.35342 1.83588 1.73874 2.91921 1.19328 0.92186 0.548912 0.425415 0.274265 0.158402
threshold=21.000000000000004 30.000000000000004 227.50000000000003 47874.000000000007 212.00000000000003 230.50000000000003 12.500000000000002 640.50000000000011 417.50000000000006 109328.00000000001 45405294.500000007 5054941.1740000015 22.000000000000004 22.000000000000004 1360782.0000000002 85.333333331650024 1536.4166665000002 190.50000000000003 66.395280956803489 15131632.000000002 225.85714287857147 10.333333331650001 16.165807538654764 139.50000000000003 17.897858342439203 251.50000000000003 280828.50000000006 70.000000000000014 5.5000000000000009 1021319.5000000001 1581.5000000000002 10199695.000000002 170.00000000000003 115260.61180233855 16496615.338494675 25.666666668350004 25.677083335000003 1.0000000180025095e-35 1062.5037018533501 2590.6735751295173 316.50000000000006 3137248.4340000004 5054941.1740000015 999475.50000000012 2.5000000000000004 63258.500000000007 52631.57894736842 1.9387589664500002 55555.555557777807 16.209139939698389 333333.3333166666 166666.66668333355 187848.57330000002 3217835.0000000005 41.976190475000003 305366.36650363408
decision_type=2 2 2 2 2 2 2 2 2 2 2 2 2 2 2 2 2 2 2 2 2 2 2 2 2 2 2 2 2 2 2 2 2 2 2 2 2 2 2 2 2 2 2 2 2 2 2 2 2 2 2 2 2 2 2 2
left_child=1 2 6 8 15 7 12 -6 13 -3 11 29 38 -4 26 16 33 18 -7 21 25 44 -23 24 48 -19 -11 -16 -25 -5 32 37 45 -2 35 -26 -37 -27 46 -35 -41 -33 -30 47 -17 -22 -1 -31 49 54 51 -14 -12 -45 -24 -42
right_child=4 9 3 10 5 17 -8 -9 -10 14 52 -13 50 -15 27 19 -18 20 -20 -21 30 22 23 28 34 31 -28 -29 42 43 -32 41 -34 39 -36 36 -38 -39 -40 40 55 -43 -44 53 -46 -47 -48 -49 -50 -51 -52 -53 -54 -55 -56 -57
leaf_value=-0.063264919755491311 0.021985363339198382 0.1600974457317017 -0.052376411577408334 -0.052773742984573511 0.16135605237830417 -0.038109120177876314 0.1560181702658871 -0.058342036678055029 0.14876098079220335 0.030290699364861156 -0.070984947494370329 0.13392083695925969 0.010780600415372286 0.082888566558965454 0.1456823040740591 -0.025026361372694865 -0.060961298389271008 0 0.085050245252802567 0.0219168730542302 0 -0.074307454610171117 0 -0.074664874778980386 -0.069214870309616663 -0.073351582814091418 -0.047937451020686965 0.039155365195560406 -0.053301707494156143 -0.032501286123364337 -0.058079317938935004 -0.041352266224028385 -0.042781173775676119 -0.030526138081420288 -0.0060900503653690983 -0.013904465397156169 -0.056517578436215951 -0.05575210816021306 -0.021305832296069402 -0.014980499037491775 0 0 -0.0029471285920026373 0.0081866119949840794 0 -0.017489387651023133 -0.043153214122940722 0 0 -0.042209718714795778 0.0094714900017374912 0.04647239762287865 -0.025253050564936434 -0.0012754384696431838 -0.01262709676508317 0.0061492058400428066
leaf_weight=1324.5667659342289 23.934012696146965 1484.0342065691948 49.799608424305916 64.059215724468231 744.35070821642876 51.132620319724083 59.124713912606239 42.097677811980247 1194.1241927742958 15.298714742064474 523.75216895341873 60.985533103346825 36.641088023781776 109.7120415866375 27.654152318835258 21.494845509529114 183.65017351508141 16.256851628422737 16.089341133832932 18.356033191084862 16.235923647880554 658.21247836947441 18.568854868412018 847.78868664801121 294.20105792582035 1295.6709464490414 34.26649871468544 19.602939337491989 224.43704234063625 18.406358391046524 416.03385299444199 17.130044013261795 187.00482913851738 49.809880316257477 17.748021110892296 72.663474947214127 2341.5192053616047 202.78383783996105 28.153518512845039 92.826434716582298 31.655988067388535 16.818003311753273 14.682767808437346 21.50850223004818 26.45442059636116 47.730000168085098 112.89410929381847 17.196520566940308 16.654745399951935 34.795260101556778 119.24973940849304 17.555778294801712 19.087892279028893 16.224658727645874 28.934303596615791 15.742493763566015
leaf_count=8085 137 6366 299 381 3214 307 256 254 5203 80 3237 277 193 532 123 128 1119 90 86 104 95 4072 108 5284 1812 8053 200 96 1355 109 2509 106 1121 292 104 415 14250 1246 166 538 182 100 87 116 156 292 686 97 99 209 643 92 112 94 167 90
internal_value=-0.000415222 0.0586292 0.0191939 0.071649 -0.0396034 -0.00787765 -0.0453791 0.149224 0.136061 0.153013 -0.0456907 0.0193117 -0.0528974 0.0391054 0.0413669 -0.0588931 -0.0341664 -0.0621524 -0.0041874 -0.060953 -0.0638007 -0.0613394 -0.0618222 -0.0596387 -0.0556215 -0.069568 -0.0189682 0.108455 -0.0697891 -0.0305639 -0.0499541 -0.0703039 -0.0353313 -0.00985319 -0.0567242 -0.0569655 -0.0553408 -0.0711747 -0.0612881 -0.0152176 -0.007888 -0.0239973 -0.0512281 -0.00744089 -0.010104 -0.00952114 -0.0618877 -0.0195177 -0.0225572 -0.0261955 0.016578 0.0273842 -0.0698726 0 -0.00883911 0.00114194
internal_weight=13477.4 5373.9 3793.04 2094.86 8103.46 3069.33 1698.19 786.448 1353.64 1580.86 741.221 198.381 1639.06 159.512 96.8223 5034.13 397.619 2282.89 67.222 4636.51 2215.66 4618.16 4570.21 3911.99 2825.08 1548.66 49.5652 47.2571 1086.91 137.395 667.005 1532.4 250.971 213.969 2726.13 2708.38 2414.18 1498.45 1465.61 190.035 140.225 33.948 239.12 73.336 47.9493 63.9659 1437.46 35.6029 98.9532 82.2984 173.447 54.1969 542.84 37.7332 47.5032 47.3985
internal_count=75624 27443 20578 10457 48181 17473 10121 3468 6034 6865 4423 1074 9865 831 499 30708 2358 14005 393 28350 13612 28246 27962 23890 17164 9595 280 219 6726 797 4017 9505 1508 1239 16581 16477 14665 9299 8937 1102 810 206 1442 416 284 387 8771 206 583 484 928 285 3349 210 275 272
is_linear=0
shrinkage=0.0603639


Tree=4
num_leaves=53
num_cat=0
split_feature=5 69 20 37 68 14 11 13 43 7 19 21 2 17 37 69 69 24 43 49 7 43 43 43 19 14 13 28 21 53 54 54 43 20 54 41 14 2 28 38 7 38 18 43 37 16 20 20 37 20 20 53
split_gain=7622.8 4563.98 3104.5 3725.79 975.277 994.098 2684.81 717.882 1883.95 618.827 562.007 326.262 306.133 273.759 263.982 250.282 135.306 98.2698 91.9103 64.0548 46.6869 39.315 29.7967 22.5357 21.2573 18.8357 24.4832 23.9745 76.1045 25.1939 17.8541 22.3057 17.8452 12.2982 12.1306 12.0188 7.27092 6.73693 7.09843 3.7387 1.81152 1.71899 1.41134 1.23905 0.986642 0.97727 1.596 3.7098 0.530895 0.249042 0.170597 0.0113516
threshold=21.000000000000004 30.000000000000004 227.50000000000003 60.163946765000006 15.500000000000002 465.68252980000005 974.00000000000011 32.281250000000007 13188.545698924701 12.500000000000002 3094041.5000000005 421.50000000000006 45405294.500000007 5054941.1740000015 18.584108898850005 22.000000000000004 22.000000000000004 1360782.0000000002 85.333333331650024 1.0000000180025095e-35 705.50000000000011 13326.014880000001 77.40000000000002 85.866666666666688 263054.00000000006 430.09860440985005 138.12500000000003 2306141.5790000004 7106131.0000000009 99.298076923100012 10.333333331650001 25.666666668350004 261.33333331665006 1479436.0000000002 26.086080587600005 30.714285712142857 727.43340111305008 75929.500000000015 1569.5367980576004 0.15497153140000003 1269.5000000000002 52631.57894736842 1437.0082564667002 2241.3333333333171 333333.3333166666 3831.4176247605506 369.50000000000006 316.50000000000006 166666.66668333355 340.50000000000006 3015789.0000000005 61.885714285000006
decision_type=2 2 2 2 2 2 2 2 2 2 2 2 2 2 2 2 2 2 2 2 2 2 2 2 2 2 2 2 2 2 2 2 2 2 2 2 2 2 2 2 2 2 2 2 2 2 2 2 2 2 2 2
left_child=1 2 9 12 5 7 -7 8 30 15 -6 16 13 33 17 41 -5 24 22 20 23 -10 -9 -20 -3 26 32 29 -29 -28 -2 -32 42 37 -33 -34 -8 -4 -39 -27 -22 -1 -25 -36 48 51 47 -47 -17 -49 -35 -24
right_child=4 14 3 11 10 6 36 18 21 -11 -12 -13 -14 -15 -16 44 -18 -19 19 -21 40 -23 45 25 -26 39 27 28 -30 -31 31 34 35 50 43 -37 -38 38 -40 -41 -42 -43 -44 -45 -46 46 -48 49 -50 -51 -52 -53
leaf_value=-0.061125370813368156 -0.014427774211693611 0.0312129535565226 0 -0.046071048076517407 0.14526896094122946 0.14790760493015867 -0.055376122217769976 -0.054134439037785954 0.14644852659393851 0.14145065379891794 -0.056459355101043808 0.13495913176649701 -0.068591837698568373 0.12117836738553162 0.14507805768222873 0.010097516879894384 0.075338517935424371 0.099401311901611666 -0.07376588305978711 0.022320837753321086 -0.073879860290924859 0.039005475740833337 -0.0015979937380774141 -0.0084228599052588275 -0.046675227678232734 -0.016728827986407291 0.018034527342028376 0.097319938759878363 -0.041298874026173035 -0.049745588269926755 -0.06672574528566956 -0.013200448602916836 0 0.0059043451416306118 -0.055155381080421097 -0.059928583517015625 0 -0.050253730814082638 0 -0.072232604006729373 -0.016924505571668056 -0.041646842864780681 -0.038744450612744306 -0.0155576169207135 0.0088619119718993718 -0.01410130207045756 -0.026180369888916786 0 0.042915860957747097 0.0092478942275697126 0 0
leaf_weight=1303.279466047883 53.465638712048531 15.582160115242003 15.438343077898024 43.727390319108963 161.10978461802006 352.75362204015255 716.89732857048512 91.274769023060799 231.10806986689568 61.323968514800072 70.13456192612648 1232.1533701866865 520.54663422703743 63.3740513920784 1536.8941449522972 36.833213835954666 113.41641375422478 48.702486023306847 415.9995448589325 28.775464236736298 1093.3605006784201 20.759366512298584 15.000276625156401 47.300649806857109 33.693296611309052 16.73303909599781 14.62918137013912 16.430214866995811 70.047350600361824 977.88236205279827 412.81637100875378 73.093662187457085 19.188695952296257 16.633559867739677 102.39704613387585 2195.4289020746946 15.911626502871512 80.089831531047821 14.734122797846792 408.35379256308079 13.746941119432448 110.04861904680729 24.668203517794609 22.831494152545929 119.82283741235733 91.890054792165756 38.571247935295105 19.408522218465805 17.949466452002525 19.972840815782547 18.488045513629913 22.302442014217377
leaf_count=8251 319 80 84 269 675 1469 4474 574 958 256 441 5179 3349 277 6364 193 532 219 2700 157 7130 116 86 275 202 105 83 73 438 6136 2636 421 115 90 647 13917 96 487 84 2644 87 686 159 131 643 537 228 111 92 114 106 129
internal_value=-0.000510599 0.0546827 0.018049 0.0664215 -0.0384129 -0.0421325 0.0111834 -0.0509955 -0.001177 -0.0439487 0.083089 0.124428 -0.0437771 0.0170066 0.138892 -0.0513592 0.0399618 0.0388739 -0.0590453 -0.0609005 -0.0614007 0.138758 -0.0249289 -0.0581648 -0.0171834 -0.0563673 -0.0544672 -0.045741 -0.0112837 -0.048487 -0.0547195 -0.0578215 -0.0584551 -0.0274017 -0.0378073 -0.0595027 -0.0544421 -0.037276 -0.0432267 -0.070658 -0.073406 -0.0598131 -0.022526 -0.0500303 0.0156607 -0.0106829 -0.0126426 -0.00667121 0.025781 0.00471761 0 0
internal_weight=13277 5402.73 3767.86 2118.6 7874.24 7643 1085.56 6557.44 916.472 1649.26 231.244 1389.3 729.305 208.758 1634.87 1587.93 157.144 97.9779 5640.96 5342.54 5313.77 251.867 298.42 4206.66 49.2755 3790.66 3365.58 1078.99 86.4776 992.512 664.604 611.139 2286.59 145.384 198.322 2214.62 732.809 110.262 94.824 425.087 1107.11 1413.33 71.9689 125.229 174.606 207.145 169.843 131.271 54.7827 39.3814 35.1216 37.3027
internal_count=75624 27443 20578 10457 48181 47065 6039 41026 5228 10121 1116 5980 4477 1128 6865 9865 801 501 35798 34019 33862 1074 1779 26645 282 23945 21196 6730 511 6219 4154 3835 14466 851 1199 14032 4570 655 571 2749 7217 8937 434 778 928 1205 990 762 285 225 196 215
is_linear=0
shrinkage=0.0603639


Tree=5
num_leaves=57
num_cat=0
split_feature=5 69 66 24 66 67 19 13 13 66 37 38 9 20 66 24 43 16 66 42 69 13 12 22 20 9 9 20 35 19 66 20 19 7 77 20 2 20 28 66 36 37 24 42 42 19 19 2 2 23 25 16 20 20 15 13
split_gain=6831.18 3836.62 3620.91 2303.95 1966.48 2728.49 1487.55 653.105 1674.68 472.856 228.794 158.066 135.316 108.325 91.4169 82.7941 80.6945 28.0358 27.4691 24.9888 23.8088 22.484 31.8177 30.7162 19.2589 18.8967 27.944 19.1242 18.5751 18.5511 16.2853 111.966 103.383 13.4315 34.6677 8.32737 7.84976 7.45828 7.01948 6.83887 4.89694 4.04499 3.20154 2.97124 15.7902 2.8405 12.3966 1.27494 5.49657 1.17769 0.608438 0.549027 1.49498 5.24076 0.478062 0.0276899
threshold=21.000000000000004 30.000000000000004 1023.5000000000001 60311.500000000007 26144.500000000004 239.50000000000003 231.50000000000003 32.281250000000007 31.029411764705888 2052.5000000000005 18.584108898850005 6.198129465300001 61.126984126984141 1479436.0000000002 1024.5000000000002 1360782.0000000002 85.333333331650024 4455.0518232049008 256.50000000000006 8.7976608930500024 26.000000000000004 225.85714287857147 62.500000000000007 1352838.3750000002 1.5000000000000002 25.666666668350004 10.333333331650001 37.500000000000007 70.000000000000014 263054.00000000006 255.50000000000003 393.50000000000006 754.50000000000011 377.50000000000006 7468267.5000000009 68.500000000000014 569771.00000000012 33.500000000000007 7704419.4834141908 2777.5000000000005 150.00000000000003 333333.3333166666 58793518.000000007 16.165807538654764 17.52712184008266 10000064.500000002 5581039.5000000009 202.50000000000003 731.50000000000011 4408.8107805000009 68.500000000000014 3831.4176247605506 369.50000000000006 316.50000000000006 89033.39416500002 233.84868421055003
decision_type=2 2 2 2 2 2 2 2 2 2 2 2 2 2 2 2 2 2 2 2 2 2 2 2 2 2 2 2 2 2 2 2 2 2 2 2 2 2 2 2 2 2 2 2 2 2 2 2 2 2 2 2 2 2 2 2
left_child=1 2 18 6 7 12 14 8 25 13 15 -8 -6 -5 41 29 19 -13 30 -9 -11 22 23 -18 -23 26 -2 36 -17 -3 -1 -32 -33 34 -25 37 47 42 -36 50 -39 -4 -26 -24 -45 46 -35 -27 -49 -22 -16 54 53 -53 -21 -42
right_child=4 10 3 9 5 -7 11 16 -10 20 -12 17 -14 -15 39 28 21 -19 -20 51 49 24 43 33 35 27 -28 -29 -30 -31 31 32 -34 45 38 -37 -38 40 -40 -41 55 -43 -44 44 -46 -47 -48 48 -50 -51 -52 52 -54 -55 -56 -57
leaf_value=-0.053896417401248689 -0.012935599303021796 0.026791913529217525 0.030130448256956682 -0.015775042742465321 -0.012876347117541204 -0.071433550554128505 0.1342915212513926 -0.052019664455137705 0.13260142947804548 -0.066431037075533869 0.13336172643495012 -7.6464308102821798e-05 0.13500998387958263 0.13838045117579839 -0.019878988263962356 0.12306698203216433 -0.068525801805923728 0.069750488599727392 -0.069040797404508053 -0.0084075911609362182 -0.021277876835904552 -0.057206131100019805 -0.068224979552349269 0.054281881380432564 -0.039165680051432589 -0.041511445298804218 -0.065983478840096255 -0.059757071577293389 0.026265249064288728 -0.045391864694995565 -0.060184937181012456 0.11870833051711351 -0.05555086166704741 -0.058933023894550116 -0.052231674403486569 -0.059600065952288728 0.014678524426824078 0.00058158852556425701 0 -0.055612682693936731 -0.0098278786993580263 0.0060331188767777256 0 -0.01486734332234701 -0.053311093722320374 -0.06226270932432252 -0.0099968371452027836 0 -0.028697312638533822 0 0 -0.015730368601130709 -0.026516844173342807 0.0077670535723939789 0.0025746471091192429 -0.041172085278833218
leaf_weight=723.22038853168488 53.339764356613159 15.61281083524227 53.13991990685463 19.212965652346611 20.268910646438599 436.13578420877457 1249.5561616718769 88.457190230488777 245.78426687419415 450.012272387743 1562.9947338998318 17.826903209090233 543.01055437326431 57.389931067824364 22.495621651411057 28.931711509823799 2150.8287581652403 103.68974755704403 555.82042017579079 21.852133497595787 16.376510456204414 605.24595454335213 167.67924043536186 14.851968392729757 294.48000012338161 27.86481499671936 385.27903880178928 74.064528957009315 20.26990407705307 33.088478192687035 121.68225695192814 28.759405493736267 18.104035079479218 53.548136949539185 50.32737897336483 84.168640121817589 14.755228295922278 31.110345080494881 20.328090831637383 121.60213789343834 37.093235701322556 119.36666353046894 16.326745688915253 58.756382405757904 1651.7018950134516 164.57187354564667 51.049945250153542 42.732157722115517 46.966919288039207 23.061530232429504 13.515057787299154 94.720645219087601 39.167567446827888 37.902149081230164 15.792205184698103 14.074968308210371
leaf_count=4644 321 79 272 121 126 2968 5108 575 1002 2988 6336 101 2214 237 147 121 14501 472 3652 126 94 3908 1130 78 1871 174 2564 482 94 204 787 123 100 363 322 542 86 197 123 793 235 638 102 351 10758 1076 324 245 283 128 87 558 235 216 91 92
internal_value=-0.000685403 0.0514434 0.0172564 0.0649124 -0.0373298 0.0414565 0.100036 -0.0492029 -0.000826367 -0.0402157 0.127697 0.12773 0.129252 0.0970161 -0.0143149 0.0343424 -0.0566362 0.0576705 -0.0572115 -0.0244972 -0.062362 -0.0583385 -0.0605491 -0.0655263 -0.0491104 -0.0521893 -0.0601252 -0.0339299 0.0894711 -0.0174038 -0.0494898 -0.0289354 0.0467412 -0.0464999 -0.0203649 -0.0382296 -0.0172883 -0.0328842 -0.0400044 -0.0477447 -0.0118158 0.01498 -0.0376336 -0.0537455 -0.0521406 -0.0537967 -0.0376777 -0.0234077 -0.0146981 -0.00949749 -0.0138583 -0.0115156 -0.0131541 -0.00723093 0 -0.0237296
internal_weight=13030 5375.73 3714.83 2267.25 7654.24 999.415 1701.19 6654.82 890.787 566.053 1660.9 1371.07 563.279 76.6029 330.119 97.9029 5764.04 121.517 1447.59 297.892 489.45 5466.14 4383.64 2505.51 1082.5 645.002 438.619 206.384 49.2016 48.7013 891.766 168.546 46.8634 354.677 85.5074 477.254 132.319 393.085 70.6555 157.613 82.2785 172.507 310.807 1878.14 1710.46 269.17 104.598 117.564 89.6991 39.438 36.0107 209.435 171.79 132.623 37.6443 51.1682
internal_count=75565 27326 20492 11186 48239 5308 7618 42931 5157 3568 6834 5681 2340 358 1937 498 37774 573 9306 1801 3210 35973 29026 16787 6947 4155 2885 1270 215 283 5654 1010 223 2286 523 3039 788 2497 445 1027 524 910 1973 12239 11109 1763 687 702 528 222 234 1226 1009 774 217 327
is_linear=0
shrinkage=0.0603639


Tree=6
num_leaves=56
num_cat=0
split_feature=5 0 66 0 2 0 0 13 13 66 66 2 66 18 35 0 35 38 0 37 10 35 3 35 54 54 20 27 24 20 38 66 14 4 13 11 14 13 0 14 21 4 10 41 35 10 16 2 0 21 21 29 37 10 30
split_gain=6143.1 3969.44 1794.5 2555.32 1730.33 636.997 1066.08 605.962 1483.07 465.898 1605.79 692.062 268.85 234.721 199.251 188.269 61.874 50.7223 45.5376 34.6 26.0103 25.8304 21.2254 20.0118 18.3668 26.9975 18.1268 16.0808 12.1938 49.7847 11.8918 10.4142 125.396 110.141 40.7922 13.9772 9.8122 9.28945 8.81492 8.7552 7.86458 7.10285 6.26706 5.99118 4.54633 4.54169 3.62633 2.90523 2.47056 1.64019 5.94202 0.987821 0.95924 0.882887 0.5717
threshold=21.000000000000004 80.500000000000014 26144.500000000004 124.00000000000001 45405294.500000007 11009.000000000002 8074.5000000000009 32.281250000000007 31.029411764705888 26144.500000000004 241.50000000000003 308600.50000000006 206.50000000000003 809824.96957302664 26.000000000000004 8081.0000000000009 22.000000000000004 166666.66668333355 435.00000000000006 333333.3333166666 357.82119271655512 62.000000000000007 1.5000000000000002 62.000000000000007 25.666666668350004 10.333333331650001 37.500000000000007 11825564.950000001 118.50000000000001 112.50000000000001 310.94528115000008 5564.5000000000009 406.12985105840005 2.5000000000000004 225.85714287857147 136.50000000000003 62.753485959474467 225.86607145000002 51203.500000000007 61.798058220950004 544475.50000000012 8.5000000000000018 26.870057687550005 72.769230769215397 170.00000000000003 27.002760170956208 0.33205249346300636 262.50000000000006 443.50000000000006 207.50000000000003 732.50000000000011 968767.50000000012 4667.0819700155507 467.70705347105007 154972.50000000003
decision_type=2 2 2 2 2 2 2 2 2 2 2 2 2 2 2 2 2 2 2 2 2 2 2 2 2 2 2 2 2 2 2 2 2 2 2 2 2 2 2 2 2 2 2 2 2 2 2 2 2 2 2 2 2 2 2
left_child=1 4 7 -4 9 6 14 8 24 10 12 30 -1 -13 16 -8 -3 23 -16 52 27 46 -17 28 25 38 40 31 29 -7 -12 32 54 -33 35 36 39 44 -2 -35 49 -37 -27 -29 51 -44 -6 -31 -20 -26 -51 -36 -18 -22 -9
right_child=2 5 3 -5 21 17 15 20 -10 -11 11 13 -14 -15 18 22 19 -19 48 -21 53 -23 -24 -25 26 42 -28 43 -30 47 -32 33 -34 34 37 41 -38 -39 -40 -41 -42 -43 45 -45 -46 -47 -48 -49 -50 50 -52 -53 -54 -55 -56
leaf_value=-0.042079104972681622 -0.033777180952748523 -0.049217666319046588 0.12518027387326214 -0.070253841903937395 -0.063797879257588688 -0.052906212245399875 0.12884887595386327 -0.051857014173437119 0.12318920797007682 0.12536366307724092 -0.068955220664805791 0.12428351890444223 0.12603668826380157 -0.04459219716328388 0.020586266310341113 0.027516729159095091 0.055679309462977805 0.020696395518237442 -0.041930808997320282 0 -0.071524762961821059 0.0026661083185904335 -0.054680104036117713 0.0015340531449736013 -0.040638512782294495 -0.067882363561978076 -0.05839334862010985 -0.029800076541277542 -0.066928427335684604 0.028717603739311377 0 0.1062722386029851 0.10185649462186226 -0.0023928073362727291 -0.025903634799596655 -0.070312615847318058 0 -0.051840033110401522 0.010142147269468134 -0.063879885491039942 0.016165865510805268 -0.054687061930855978 0 0.011256099835722117 -0.039066144796102542 -0.045101626987176249 -0.0095313616805506995 0 -0.062230793062423212 0 -0.028289412201742005 0 0.015018635277505833 -0.024665755136854289 -0.023469656406779619
leaf_weight=33.217014998197556 32.106638491153717 39.099863231182098 554.30798622965813 431.82537135481834 237.62158814072609 609.19675132632256 261.90933413803577 2490.7828532606363 248.58245983719826 1563.2062888741493 299.64238035678864 128.43791353702545 983.79290886223316 35.936119616031647 25.310942098498344 32.140538468956947 102.96856942772865 28.978987827897072 146.12426860630512 78.942568838596344 478.519252166152 17.352338075637817 16.227012500166893 14.881051763892172 29.224207013845444 336.75384569168091 71.331512570381165 23.485453948378563 331.40004140138626 18.859588205814362 13.631645143032072 12.772764623165129 17.465528473258018 22.724802017211914 14.190624028444288 1099.8698527365923 16.409296184778214 737.92211842536926 20.834371209144592 33.495040148496628 14.482403621077536 335.33914789557457 15.843075171113012 16.030890345573425 167.69808012247086 16.725146800279617 15.722049012780188 20.605911791324615 262.43132716417313 41.447026073932648 45.822480276226997 40.807984247803688 20.857953175902367 18.878514990210533 36.236103013157845
leaf_count=207 195 263 2235 3073 1662 4132 1056 16733 1002 6297 1950 523 3944 237 134 162 464 155 931 422 3400 97 112 76 186 2339 482 151 2251 98 76 66 81 153 92 7753 109 4912 126 231 84 2284 110 94 1087 115 99 102 1770 237 281 262 106 126 240
internal_value=-0.000743203 0.0486158 -0.0362807 0.0393782 0.0890646 -0.0182645 0.0161746 -0.0479157 -0.000885308 0.102041 0.0774085 -0.0134279 0.120269 0.0858733 -0.0260889 0.108727 0.0170305 -0.0516404 -0.0506533 0.0311835 -0.0552535 -0.0564484 0 -0.0540081 -0.0507884 -0.0588008 -0.0326501 -0.0537141 -0.0550943 -0.0485706 -0.0664148 -0.0540286 -0.0503615 -0.0576675 -0.0586631 -0.0653638 -0.0316705 -0.0478302 -0.0122644 -0.0437306 -0.016431 -0.0668757 -0.0647694 -0.00747014 -0.0332764 -0.024282 -0.0614239 0.0121017 -0.0556937 -0.0226246 -0.0134392 -0.0109403 0.0509393 -0.0702861 -0.0515552
internal_weight=12760.4 5338.49 7421.91 986.133 3328.56 2009.93 986.012 6435.78 873.153 3057.86 1494.66 477.648 1017.01 164.374 675.735 310.277 241.869 1023.92 433.867 202.769 5562.63 270.696 48.3676 994.943 624.571 422.263 202.308 5065.23 980.062 648.662 313.274 5025.71 2544.48 2481.23 2468.46 1507.84 72.6291 960.619 52.941 56.2198 130.976 1435.21 369.322 39.5163 222.697 32.5682 253.344 39.4655 408.556 116.494 87.2695 54.9986 123.827 497.398 2527.02
internal_count=75565 27326 48239 5308 15092 12234 5420 42931 5157 13234 6937 2786 4151 760 4090 1330 1255 6814 2835 992 37774 1858 274 6659 4155 2885 1270 34248 6583 4332 2026 34003 17054 16949 16883 10530 493 6353 321 384 788 10037 2564 245 1441 225 1761 200 2701 704 518 354 570 3526 16973
is_linear=0
shrinkage=0.0603639


Tree=7
num_leaves=65
num_cat=0
split_feature=7 69 66 21 66 67 19 13 13 66 19 9 66 20 66 24 49 46 4 67 14 66 69 9 9 20 19 35 13 67 25 16 69 21 10 20 2 14 17 19 19 76 66 10 29 7 2 16 21 20 7 20 20 2 2 41 7 2 24 23 20 16 2 2
split_gain=5531.92 2892.62 2928.87 1764.68 1638.98 2141.05 1121.82 565.274 1318.3 391.328 164.761 97.731 94.8648 80.7868 79.2189 63.8311 59.4653 31.6999 107.974 81.5819 76.9222 27.1507 23.7533 17.6206 26.2063 17.2748 15.525 14.7401 13.8147 11.1873 11.5267 7.5688 7.52607 7.34931 6.09253 5.85652 114.414 5.49229 4.74282 4.63489 34.0291 16.9772 4.24476 4.22046 3.94933 5.61756 3.75896 3.50368 3.15656 3.09271 4.67204 2.78694 10.1146 2.56239 4.47175 2.34088 2.22862 1.70235 1.58562 1.05516 0.822166 3.836 0.514305 0.196745
threshold=21.000000000000004 30.000000000000004 1023.5000000000001 57378.000000000007 26144.500000000004 239.50000000000003 231.50000000000003 32.281250000000007 31.029411764705888 2052.5000000000005 109328.00000000001 65.058823529411768 2049.5000000000005 1479436.0000000002 2777.5000000000005 1360782.0000000002 1.0000000180025095e-35 1.0000000180025095e-35 3.5000000000000004 50673.500000000007 68.434548166300019 258.50000000000006 26.000000000000004 25.666666668350004 10.333333331650001 18.500000000000004 263054.00000000006 70.000000000000014 225.85714287857147 62838.000000000007 54384.500000000007 10.579164283318713 22.000000000000004 91795.000000000015 26.870057687550005 340.50000000000006 731.50000000000011 62.753485959474467 98859.837662337712 10000064.500000002 9999998.0000000019 10099789.000000002 2048.5000000000005 27.002760170956208 10200044.000000002 387.50000000000006 116177016.50000001 86956.521739130432 900.50000000000011 5.5000000000000009 186.00000000000003 393.50000000000006 5.5000000000000009 202.50000000000003 731.50000000000011 30.714285712142857 331.50000000000006 391.50000000000006 320403.00000000006 4408.8107805000009 204.50000000000003 666666.66668333358 5086.5000000000009 431.50000000000006
decision_type=2 2 2 2 2 2 2 2 2 2 2 2 2 2 2 2 2 2 2 2 2 2 2 2 2 2 2 2 2 2 2 2 2 2 2 2 2 2 2 2 2 2 2 2 2 2 2 2 2 2 2 2 2 2 2 2 2 2 2 2 2 2 2 2
left_child=1 2 21 6 7 11 14 8 23 13 -3 -6 57 -5 32 26 17 20 -19 39 37 35 -11 24 -2 33 -12 -17 -21 30 -22 -31 42 53 -26 47 -37 55 -33 40 49 -41 -4 -36 -43 56 -42 -1 -27 -20 -51 52 -14 -25 63 -9 -46 -8 -52 -24 61 -34 -56 -55
right_child=4 10 3 9 5 -7 12 16 -10 22 15 -13 51 -15 -16 27 -18 18 19 28 29 -23 59 25 34 48 -28 -29 -30 31 -32 38 60 -35 43 36 -38 -39 -40 41 46 44 -44 -45 45 -47 -48 -49 -50 50 58 -53 -54 54 62 -57 -58 -59 -60 -61 -62 -63 -64 -65
leaf_value=-0.0565281679745692 -0.011410815910250926 0.11627917890923399 -0.038922825901375892 -0.01325854438639194 -0.0054190657295852323 -0.069506147637915322 0.061160811250496348 -0.0002014001963974253 0.11545755892926542 -0.064171860368887695 0.024159133711119062 0.11742446628647142 0.10373089775713601 0.11975918853308495 -0.05334450712734537 0.10813586776416595 0.026736834208061031 0.11107537922721242 -0.036682025609685795 -0.066672143448628429 -0.071191917151621459 -0.068330369993590587 -0.018240391302081452 -0.040334743626173036 -0.066747872748799786 -0.0084911832390208372 -0.042388922407251561 0.021506358314690201 -0.039721870302686653 -0.059567366242402157 -0.01196659351692283 -0.053438870382965992 -0.0091596241772639135 0.018221962557646125 0 0.048226067656594637 -0.053814982035192145 -0.0038890816897890835 -0.011348840178832731 -0.066458925585937037 0.035208194820287787 0 0 -0.043782624960415996 -0.016005564444434139 -0.040025322504747475 0 -0.038547038619664332 -0.057461136437892697 -0.042118625952827671 0.0060641550043465439 0.11789723334740813 0.035657923750668022 0.0073929327796069437 -0.032863350100625126 -0.050274984825789217 0 0.016003877495452831 -0.014987791555337556 0 0.029929010799185543 0.014151361203510361 0 0
leaf_weight=455.18047913908958 52.431668594479561 1581.9242757111788 13.293389081954954 18.492471158504486 20.698349460959435 397.24475279450417 104.79827488958836 12.96230064332485 249.26675689220428 414.79926924407482 15.360186502337454 550.28385351598263 53.35730841755867 58.850539341568947 114.78838117420673 29.658806398510933 28.53074237704277 14.136869311332701 120.50737978518009 475.46965603530407 1357.9568028748035 442.79142354428768 15.778542071580885 22.600445255637169 318.74125036597252 18.506338611245155 31.239676475524902 20.745250880718231 150.09736096858978 268.50822129845619 22.385541930794716 25.294317677617073 18.354983881115913 16.730308651924133 15.843075171113012 44.758808851242065 236.49713498353958 20.813579067587852 50.930436879396439 49.44712883234024 34.421162471175194 22.904553055763245 24.594441339373589 16.240185782313347 55.13121572136879 61.531573295593262 14.600029289722441 172.01857608556747 76.648220911622047 13.239701658487318 29.053730085492134 1190.8759371936321 26.216342151165009 15.544566050171854 19.215582758188248 2500.3076416701078 19.033230856060982 19.891257792711258 19.570342451334 22.572560086846352 26.234648331999779 126.62797646224499 13.89296270906925 15.178626745939253
leaf_count=3207 321 6338 89 121 131 2968 460 85 1002 2991 77 2209 222 237 793 121 159 70 803 3529 9925 3166 94 149 2316 110 204 94 990 1940 148 182 95 99 110 208 1557 142 335 348 212 150 167 115 362 408 91 1191 531 93 189 4773 129 90 120 17360 124 94 129 128 126 667 85 86
internal_value=-0.000779369 0.0461084 0.0155092 0.0577434 -0.0352643 0.0376198 0.0874718 -0.0466571 -0.000660403 -0.0381229 0.111535 0.112554 0.110968 0.085214 -0.0130422 0.0312738 -0.0539033 -0.0543847 -0.0439855 -0.046389 -0.0569506 -0.0546147 -0.0598657 -0.0493026 -0.0574039 -0.0313936 -0.015429 0.0784102 -0.0606729 -0.067235 -0.0704145 -0.0536176 0.00813024 -0.011001 -0.0635408 -0.0475873 -0.0365998 -0.0498274 -0.0289941 -0.0254063 -0.017041 -0.0334246 -0.0128827 -0.0232875 -0.0212183 -0.0251131 0.0246269 -0.0520574 -0.0506259 -0.0296226 -0.0116696 0.116112 0.0851052 -0.0195395 -0.00791736 -0.0501114 -0.00915007 0.0560645 0 -0.00675277 0.0142147 0.00952464 -0.0242489 0.00249155
internal_weight=12465.6 5279.7 3600.77 2249.53 7185.9 968.227 1719.03 6217.67 850.84 530.493 1678.93 570.982 1395.14 77.343 323.894 97.0039 5366.83 5338.3 1079.14 1065.01 4259.16 1351.25 453.15 601.573 403.256 198.317 46.5999 50.4041 625.567 1725.08 1380.34 344.733 209.105 103.162 350.825 908.455 281.256 2534.08 76.2248 439.44 231.392 208.048 37.8878 32.0833 158.601 135.696 49.0212 627.199 95.1546 182.371 61.8638 1270.45 79.5737 86.4322 63.8317 2513.27 74.1644 124.69 48.6241 38.3511 171.218 144.983 33.1085 30.7232
internal_count=75565 27349 20515 11186 48216 5308 7615 42908 5134 3571 6834 2340 5678 358 1937 496 37774 37615 7498 7428 30117 9329 3213 4132 2862 1270 281 215 4519 12530 10073 2457 1144 629 2541 6163 1765 17587 517 2909 1517 1392 256 225 1044 894 303 4398 641 1214 411 5124 351 530 381 17445 486 554 318 222 888 762 205 176
is_linear=0
shrinkage=0.0603639


Tree=8
num_leaves=76
num_cat=0
split_feature=63 0 2 67 67 0 0 35 7 20 25 35 35 0 25 63 35 51 14 35 0 13 0 37 14 76 35 25 20 18 3 9 20 37 37 22 0 67 9 9 13 14 35 0 24 76 23 22 10 10 21 71 9 0 2 0 71 6 18 2 75 35 24 7 37 3 0 0 0 0 30 30 30 10 30
split_gain=5018.41 3132.71 1350.3 935.298 4077.02 536.078 846.087 271.173 269.088 234.627 1175.87 333.879 168.758 146.67 134.387 51.2848 49.2492 49.0024 93.4665 71.6133 41.3466 39.2272 29.8315 27.404 26.6666 24.8866 23.1527 22.3644 37.1522 17.7808 17.5532 16.8856 16.5043 16.378 22.3675 16.064 13.9485 13.841 12.4565 21.2524 11.209 7.23067 6.07821 5.72212 5.38818 10.6318 4.81269 3.48286 3.15242 5.36076 2.98465 3.2638 6.092 2.84108 2.7086 1.7417 1.47419 1.32003 1.22916 1.10421 1.09158 1.08586 1.06133 0.862817 0.82693 0.505989 0.215492 26.9094 2.3731 3.65501 0.140661 8.43361 1.46389 0.0466995 0.000931563
threshold=21.000000000000004 80.500000000000014 45405294.500000007 212.00000000000003 230.50000000000003 11009.000000000002 8074.5000000000009 26.000000000000004 640.50000000000011 506.50000000000006 40.500000000000007 62.000000000000007 26.000000000000004 8081.0000000000009 1829.5000000000002 353.50000000000006 22.000000000000004 1.0000000180025095e-35 68.434548166300019 294.00000000000006 435.00000000000006 225.85714287857147 443.50000000000006 333333.3333166666 81.355025777850003 56323280.500000007 76.000000000000014 118.50000000000001 112.50000000000001 30544.998050220554 1.5000000000000002 10.333333331650001 369.50000000000006 166666.66668333355 1250000.0000000002 1153341.2500000002 50708.500000000007 280.50000000000006 25.666666668350004 25.677083335000003 233.84868421055003 62.753485959474467 170.00000000000003 51203.500000000007 10000064.500000002 10199695.000000002 9014.1972465000017 3382443.1928571458 26.870057687550005 27.002760170956208 264787.00000000006 100572.67902510877 64.021739130450015 443.50000000000006 262.50000000000006 52280.500000000007 374796.74924384407 4915.5000000000009 4642984.3188952385 563.50000000000011 15325.742826993854 62.000000000000007 1075164.5000000002 323.50000000000006 0.094187420500000021 17.500000000000004 53274.000000000007 56007.500000000007 54046.000000000007 54880.500000000007 107909.50000000001 109503.00000000001 28111.000000000004 86.544529321918347 63743.500000000007
decision_type=2 2 2 2 2 2 2 2 2 2 2 2 2 2 2 2 2 2 2 2 2 2 2 2 2 2 2 2 2 2 2 2 2 2 2 2 2 2 2 2 2 2 2 2 2 2 2 2 2 2 2 2 2 2 2 2 2 2 2 2 2 2 2 2 2 2 2 2 2 2 2 2 2 2 2
left_child=1 2 7 17 8 6 12 59 -5 10 -9 32 16 -8 -13 22 -3 18 19 31 -14 35 37 -18 -24 47 27 28 33 -11 -15 43 -12 36 -35 -17 -7 -6 48 -40 42 63 62 -2 60 -46 -19 -4 -33 -50 73 65 56 -22 -30 -36 -53 -54 -47 -1 -37 -49 74 -41 -20 -52 -38 68 -68 -70 72 -72 -44 -48 -23
right_child=3 5 25 4 15 26 13 9 -10 29 11 14 20 30 -16 21 23 46 64 -21 53 40 24 -25 -26 -27 -28 -29 54 -31 -32 38 -34 34 55 44 66 -39 39 41 -42 -43 70 -45 45 58 50 61 49 -51 51 52 57 -55 -56 -57 -58 -59 -60 -61 -62 -63 -64 -65 -66 -67 67 -69 69 -71 71 -73 -74 -75 -76
leaf_value=-0.0051286363194560465 -0.028052935231281422 -0.04642426276797551 -0.0075399325837879 0.11129472963004673 0.0025660322324509719 -0.068134916746907581 0.11422792864659784 0.11081588540814584 -0.053439873011102992 0.10831964502609634 -0.064461691131999663 0.10763084370881533 0.019231538309986765 0.024073770175280153 -0.044238792836430889 -0.067956077332271866 0.044199115760512636 -0.052365540018896567 -0.010580783314564648 0.081566399134058679 -0.039134335560542369 0.00044772061936199212 -0.011610044204009845 0 0.089395675644925718 0.013144858856800719 0.019153365099928356 -0.06532050936846831 0.025308346620297007 0.036073014181809408 -0.052154615928967397 -0.065000350479925889 0 0.017249429761810941 -0.052078803162248923 -0.026406767087927181 -0.046932704807013358 -0.045029466107208239 -0.009738780998379026 -0.048881398475573323 -0.052071852470059132 0 -0.008325823162796897 0.0095980791210049515 -0.065658621161109598 -0.021606921582990407 0.00033985128065995069 -0.062817841142984304 0 -0.049571528717008158 -0.032695661478966714 0.013767076905219231 -0.034946127983758075 -0.059998830460935244 0 -0.00092552701756317053 -0.0028366726085886679 0 0 -0.049494077184998299 0 -0.0082979673367201776 -0.016023991790660611 -0.0063327165671385553 -0.070895401026655397 0 -0.013806623008163568 -0.056202357057235794 0.029632607661126884 0 0 -0.036569923433208182 -0.060991636501370745 -0.003103190788479023 0
leaf_weight=16.532401278614998 24.808639213442802 36.662869438529015 15.431782364845274 802.17343552410603 18.532722800970078 161.11067239940166 262.41322576999664 825.24747309088707 35.163934111595154 1779.5430772453547 228.56928741931915 77.938434079289436 25.415452033281326 32.752208575606346 25.683766350150108 1079.1633176356554 127.31824426352978 29.117028176784515 10.584012344479559 13.024147644639013 138.80985195934772 15.736006155610086 14.821988627314569 79.471235275268555 14.812606722116469 12.892333179712294 12.283091843128203 305.90776367485523 19.154420629143715 23.988663464784622 15.082896307110785 336.66337765753269 12.088303029537199 32.582584112882614 35.515728622674942 30.56594780087471 228.17554996907711 75.590762227773666 69.314863249659538 2465.3779158592224 311.29723708331585 18.982766807079315 14.737569212913511 20.980111926794052 67.760593757033348 13.551928222179415 14.393449634313585 210.36170728504658 15.843075171113016 15.764359205961226 91.726428091526031 27.95096093416214 25.859533205628395 243.52439792454243 20.97772853076458 13.466747313737867 16.05639623105526 15.067939788103102 14.460944801568983 36.413522079586983 24.32322271168232 12.01145479083061 23.995474204421043 14.978804171085356 975.3618361800909 12.866545334458349 28.082140043377876 68.376295775175095 17.460725724697113 15.685296609997748 28.234888792037964 92.822977393865585 35.451265826821327 16.28583499789238 15.994045108556746
leaf_count=99 155 263 101 3244 113 1170 1056 3331 251 7182 1705 314 134 162 180 8378 570 205 71 67 931 100 103 422 72 79 64 2245 98 123 112 2539 56 178 256 222 1658 521 412 17692 2215 129 100 127 501 99 96 1603 110 115 617 184 175 1770 102 97 106 102 93 244 164 75 158 101 7530 85 204 501 127 114 190 636 246 111 104
internal_value=-0.000809657 0.0440477 0.0799278 -0.034339 -0.00668279 -0.0170666 0.0145873 0.0911105 0.104027 0.0935485 0.0717202 -0.021365 -0.0242183 0.0965815 0.0676474 -0.0558434 0.0147674 -0.0521154 -0.0537964 -0.048193 -0.048051 -0.0585277 -0.0154003 0.0269632 0.0326855 -0.0538994 -0.0490347 -0.0501933 -0.042491 0.107515 0 -0.0488717 -0.0608191 -0.0463212 -0.0162256 -0.0649313 -0.0505471 -0.033252 -0.0494575 -0.0474828 -0.0433448 -0.0484294 -0.030124 -0.00594206 -0.0413368 -0.0518749 -0.024194 -0.0585755 -0.0623895 -0.0259834 -0.0191332 -0.0219542 -0.00857071 -0.0531889 0.00875259 -0.0431058 0.00254073 -0.0258887 -0.00907792 -0.0404472 -0.0179999 -0.0609955 -0.00676036 -0.0487233 -0.0705021 -0.0303573 -0.0417647 -0.0305041 0 0.00944802 -0.0362498 -0.0278771 -0.0507029 0 0
internal_weight=12157.1 5196.93 3276.7 6960.2 2729.19 1920.23 961.45 3026 837.337 2973.06 1169.53 344.28 651.202 310.248 103.622 1891.85 243.452 4231.01 3981.68 2995.74 407.75 1768.1 123.758 206.789 29.6346 250.697 958.779 946.496 640.588 1803.53 47.8351 2982.71 240.658 600.456 81.5651 1229.83 518.891 94.1235 2936.93 2568.65 538.269 2499.34 226.972 45.7888 150.663 95.7735 249.324 237.805 368.271 31.6074 220.207 189.528 84.9348 382.334 40.1321 48.9825 44.0074 40.9275 28.0129 52.9459 54.8892 222.373 55.7255 2480.36 985.946 104.593 357.78 129.604 61.2282 33.146 171.247 121.058 50.1888 30.6793 31.7301
internal_count=75565 27326 15092 48239 17510 12234 5420 13234 3495 12891 5586 2255 4090 1330 494 14015 1255 30729 29048 21447 2835 13206 809 992 175 1858 6814 6750 4505 7305 274 21380 1761 4305 531 9457 3774 634 21098 18334 3749 17922 1534 282 1079 693 1681 1779 2764 225 1476 1269 567 2701 200 353 290 277 192 343 386 1678 362 17793 7601 702 2604 946 445 241 1172 826 346 207 204
is_linear=0
shrinkage=0.0603639


Tree=9
num_leaves=73
num_cat=0
split_feature=5 0 66 0 2 0 0 13 10 69 66 37 69 18 0 69 66 49 21 46 67 14 4 37 0 76 69 13 21 9 9 69 67 27 16 0 35 37 0 0 19 19 76 10 17 21 5 14 37 10 2 3 37 15 18 37 0 18 21 3 35 0 37 38 38 17 2 28 25 5 0 21
split_gain=4549.93 2803.48 1372.84 1839.35 1205.53 490.917 754.891 478.527 1025.88 315.284 1666.87 192.971 190.475 160.947 131.351 107.586 58.5428 53.2415 34.159 30.1879 94.8617 77.6583 48.3625 28.0658 24.8647 23.8363 19.4963 19.3714 17.0795 16.5536 23.9429 16.2805 12.0907 12.2882 10.8799 13.9471 9.10369 8.46972 7.6756 5.93873 5.42391 29.9512 15.8243 5.40209 5.32172 4.64726 5.54448 4.60056 3.86076 3.80353 3.32265 3.31904 3.2783 3.18301 4.17244 2.61838 2.52927 2.50737 1.63943 1.43851 0.975043 0.704858 0.49418 0.48021 1.94565 0.403566 0.314193 0.23241 0.207548 0.166838 0.0639845 0.0618175
threshold=21.000000000000004 80.500000000000014 26144.500000000004 124.00000000000001 45405294.500000007 11009.000000000002 8074.5000000000009 35.083333335000006 184.78952240030003 30.000000000000004 1023.5000000000001 5882.3529410882511 22.000000000000004 809824.96957302664 8081.0000000000009 22.000000000000004 8119.0000000000009 1.0000000180025095e-35 732.50000000000011 1.0000000180025095e-35 50673.500000000007 68.434548166300019 3.5000000000000004 333333.3333166666 50708.500000000007 56323280.500000007 22.000000000000004 225.85714287857147 1379763.5000000002 25.666666668350004 10.333333331650001 30.000000000000004 62838.000000000007 11825564.950000001 86956.521739130432 53566.500000000007 58.000000000000007 5.6732981615000009 51203.500000000007 54536.500000000007 10000064.500000002 9999998.0000000019 10099789.000000002 26.870057687550005 98859.837662337712 732.50000000000011 541.50000000000011 62.753485959474467 0.24579172435000002 27.002760170956208 116177016.50000001 2.5000000000000004 0.32109041745000005 47581.700515000011 21487.230408928353 0.8369898627000002 50609.500000000007 15099989.574063232 207.50000000000003 10.500000000000002 62.000000000000007 145.00000000000003 333333.3333166666 4.1764610480000011 4.2083430401000008 4703847.8800000008 498.50000000000006 1569.5367980576004 73254.000000000015 662.50000000000011 3388.5000000000005 419184.50000000006
decision_type=2 2 2 2 2 2 2 2 2 2 2 2 2 2 2 2 2 2 2 2 2 2 2 2 2 2 2 2 2 2 2 2 2 2 2 2 2 2 2 2 2 2 2 2 2 2 2 2 2 2 2 2 2 2 2 2 2 2 2 2 2 2 2 2 2 2 2 2 2 2 2 2
left_child=1 4 7 -4 9 6 12 8 29 10 28 13 61 -12 -8 24 23 19 -10 21 22 47 -21 -14 -7 52 -16 55 -1 30 38 62 33 68 -26 -36 -31 -34 70 -37 41 53 -42 -32 -39 58 56 -9 57 -45 69 -18 60 54 -24 -22 -47 -44 -38 -56 -6 -3 -17 -29 -65 -59 -60 -53 -23 -43 -2 -50
right_child=2 5 3 -5 25 15 14 17 18 -11 11 -13 16 -15 26 31 51 -19 -20 20 27 32 40 -25 34 -27 -28 63 -30 36 43 -33 37 -35 35 39 45 44 -40 -41 42 50 48 49 -46 46 -48 -49 71 -51 -52 67 -54 -55 59 -57 -58 65 66 -61 -62 -63 -64 64 -66 -67 -68 -69 -70 -71 -72 -73
leaf_value=-0.067241238903267816 -0.0016063341698268395 -0.0083666048564105394 0.10529947646014909 -0.067662040263312781 -0.061759871770007503 -0.067858286581775284 0.10830216368544238 -0.047451429338525523 0.1052395735321336 0.10551849670370937 0.10664610433399353 -0.039669263779044422 0.043814349359552793 -0.042616809431763276 -0.050692985309517137 0.048507907282227161 -0.052174565896659128 0.024669033319905088 0.012162169312088963 0.089249063681784133 -0.010374620201135167 -0.06967009083228555 0 0 -0.050648430384214203 0.012345472039557407 0.02771358587568138 -0.039226931790626675 0 -0.052290283923265415 -0.064312752007930254 -0.019313409512614309 -0.05721069514793193 0 -0.036038712852778598 0.038737453815040797 -0.019372761748167232 -0.050301282299837456 0.0096215154950294694 -0.0093715747823689757 -0.064736676405861684 0.0017307394239822651 -0.032051717281174043 0 -0.0063073172567688881 -0.039750597207719923 0 -0.0035996943733500541 -0.0039821460388850885 -0.041906920992615768 0 -0.015689118940523758 -0.0071497379507101137 -0.045756262633203128 -0.026629222410729368 -0.065939617092844377 0 0 0 0 -0.0078762959483711162 -0.054361872591447279 0.011467100068614818 0 -0.024709537161192275 -0.0095288380953786576 0.0084516927180771119 0 -0.013723181228560258 0.044187837684472493 -0.042677984562408303 0
leaf_weight=270.26115608215332 14.671882480382921 14.111582085490225 548.26458199322224 375.64143976569176 201.34769829362631 347.31797470152378 260.19167007505894 2344.9526481181383 234.18550600111485 1577.8979641795158 1066.2667149156332 32.590464755892754 142.40938670933247 24.083026230335236 16.905614361166954 30.928876519203186 32.612198889255524 28.442614808678627 21.902557894587517 12.505534365773199 13.928230449557303 1230.5965098366141 19.000047266483307 79.471235275268555 348.62098084390163 12.973453909158705 30.726152837276459 107.66210661828518 17.554002225399017 55.612352192401886 296.77682695537806 21.0035649985075 251.8088468760252 12.664609000086783 123.36066089570522 12.082161024212835 14.508060187101362 22.813478924334049 20.935171231627464 20.251370936632156 45.8697724416852 14.051778763532637 78.038453131914139 15.843075171113016 46.444969326257706 56.750851675868034 13.138435184955595 20.740976944565773 13.00695815682411 15.708311930298803 14.439724326133726 19.967222467064857 15.359279572963713 43.082418590784073 88.75491014122963 419.47431812435389 12.142285421490667 17.16290745139122 26.677560895681381 20.147575691342354 11.956499263644217 336.20194327831268 24.51176480948925 15.776470020413397 22.440889045596123 20.710173144936562 15.953600272536276 14.232281893491743 11.512845307588575 20.621560096740723 16.427871569991112 23.18606124818325
leaf_count=1966 92 89 2235 3073 1603 2684 1056 17383 954 6429 4332 218 630 178 127 142 215 159 120 57 105 9893 130 422 2618 79 147 744 111 417 2355 103 1968 80 907 86 94 177 126 147 347 87 533 110 312 376 81 142 88 118 91 119 101 300 617 3424 86 117 154 141 75 2529 127 107 152 138 89 86 83 125 105 154
internal_value=-0.000851255 0.0421023 -0.0334475 0.0347236 0.0761848 -0.0165033 0.0138778 -0.0443319 -0.0016345 0.0867005 0.0654131 0.0986963 -0.0232457 0.103089 0.091502 -0.0477319 0.0123763 -0.0514091 0.0982957 -0.0519 -0.0414221 -0.0545109 -0.0190516 0.0278815 -0.053959 -0.0526849 0 -0.0575672 -0.0634936 -0.046653 -0.0548362 0.0183461 -0.0653374 -0.0687469 -0.0437788 -0.0266139 -0.029224 -0.0510696 -0.0106094 0.00226425 -0.0231033 -0.0142992 -0.031554 -0.0610607 -0.0247783 -0.0179473 -0.0273255 -0.0471693 -0.0195704 -0.0219864 0.0243924 -0.0352082 -0.0574527 -0.0268845 -0.0183227 -0.0647339 -0.0342767 -0.0249298 -0.000127736 -0.0230596 -0.0599075 -0.0532195 0.0369132 -0.0343066 -0.0136494 -0.0036436 0.00135342 -0.011102 -0.0693563 0.0342347 -0.0314331 0
internal_weight=11840.2 5105.2 6734.98 923.906 3230.29 1874.91 946.829 5811.07 831.234 2988.65 1410.76 1122.94 639.006 1090.35 307.823 928.077 288.692 4979.84 256.088 4951.39 1009.86 3941.53 430.578 221.881 851.633 241.637 47.6318 579.282 287.815 575.146 380.363 76.4442 1575.84 1254.77 504.315 155.694 194.783 321.067 52.0349 32.3335 418.072 220.098 197.974 328.328 69.2584 139.171 82.0316 2365.69 152.105 31.5514 49.1131 66.8117 228.663 170.985 127.903 433.403 68.8931 115.912 57.1392 108.902 213.304 350.314 55.4406 145.879 38.2174 37.8731 42.6312 34.1995 1242.11 34.6733 31.0998 36.193
internal_count=75565 27326 48239 5308 15092 12234 5420 42931 5277 13234 6805 4728 4090 4510 1330 6814 1472 37654 1074 37495 7457 30038 2925 1052 6442 1858 274 4532 2077 4203 2906 372 12513 10056 3758 1140 1297 2457 323 233 2868 1491 1377 2583 489 880 543 17525 1030 228 303 420 1779 1188 888 3529 462 788 337 758 1678 2618 269 1003 259 255 243 205 9976 212 197 242
is_linear=0
shrinkage=0.0603639


Tree=10
num_leaves=84
num_cat=0
split_feature=5 0 21 67 67 0 0 69 37 23 7 69 0 47 43 46 14 37 9 69 5 13 42 69 14 76 38 69 37 0 0 37 9 53 24 76 42 42 38 9 9 37 15 53 36 16 37 0 14 13 28 24 20 75 5 10 75 37 20 69 6 23 38 5 21 16 20 19 9 0 30 30 5 15 36 19 23 6 36 0 0 0 15
split_gain=4151.92 2520.2 1068.06 775.406 3335.21 474.007 673.263 286.887 1107.14 251.33 214.413 189.393 110.119 109.5 63.5216 68.2437 68.5054 63.0556 54.7787 42.4641 43.2303 41.3972 36.2685 33.3662 28.9372 26.4318 25.237 21.2104 18.7363 17.5765 14.4835 14.3104 13.8838 11.5136 11.3297 11.1685 11.1024 26.9067 8.77628 8.12942 21.727 7.40289 5.64033 5.21096 8.08947 4.55383 4.51773 4.37898 4.37877 5.37871 4.34061 7.37374 4.11488 3.59523 4.33963 3.67806 2.40641 2.25883 2.1709 1.99752 1.99072 1.88823 1.70308 1.65035 1.54541 1.52252 1.11415 1.22145 0.890012 0.879355 0.763891 7.36644 0.590159 2.08883 0.553596 0.248901 0.420661 0.203941 0.171635 0.150162 6.51107 0.73958 0.0595676
threshold=21.000000000000004 80.500000000000014 50511405.000000007 212.00000000000003 230.50000000000003 11009.000000000002 8074.5000000000009 30.000000000000004 4484.3049328677016 3379.2371310000003 640.50000000000011 22.000000000000004 8081.0000000000009 1.0000000180025095e-35 85.333333331650024 1.0000000180025095e-35 68.434548166300019 654.59309250000013 157.10000000000002 30.000000000000004 136.50000000000003 225.85714287857147 9.2663821689670076 26.000000000000004 25.660439216350003 57429315.500000007 4.0530900344000012 22.000000000000004 4667.0819700155507 50708.500000000007 443.50000000000006 1.0886691685000003 10.333333331650001 43.154761904800004 10000064.500000002 9999998.0000000019 16.165807538654764 17.897858342439203 52631.57894736842 25.666666668350004 25.677083335000003 3397.1238118856004 115260.61180233855 188.77260983025005 150.00000000000003 5233.6455910000013 58823.529410882358 51203.500000000007 442.12598970000005 57.055555555000005 6202711.4378029304 10000064.500000002 21.500000000000004 221920.51352792952 549.50000000000011 192.67016326350003 45358.533955843661 4089.9795500511254 204.50000000000003 30.000000000000004 4915.5000000000009 30475.011659755455 90909.090909090926 36.500000000000007 117000219.50000001 666666.66668333358 316.50000000000006 297.50000000000006 45.961538461550006 145.00000000000003 107909.50000000001 109503.00000000001 44.500000000000007 361502.34740892006 434.00000000000006 968860.50000000012 385655.31340000004 3913.0000000000005 258.00000000000006 56418.000000000007 53762.500000000007 54880.500000000007 205269.09395876105
decision_type=2 2 2 2 2 2 2 2 2 2 2 2 2 2 2 2 2 2 2 2 2 2 2 2 2 2 2 2 2 2 2 2 2 2 2 2 2 2 2 2 2 2 2 2 2 2 2 2 2 2 2 2 2 2 2 2 2 2 2 2 2 2 2 2 2 2 2 2 2 2 2 2 2 2 2 2 2 2 2 2 2 2 2
left_child=1 2 7 14 10 6 11 8 9 26 -5 69 -8 29 17 16 18 -2 22 20 24 31 -16 28 -6 56 41 -14 -13 -7 59 50 47 -33 35 43 -34 63 79 -39 -41 -1 -19 44 75 82 -40 -24 49 -17 51 -22 -10 54 61 -56 -4 66 -15 -25 -55 -50 -48 -38 -62 -30 67 72 -65 -3 -46 -72 73 -47 -51 76 -23 -63 -37 80 -31 -82 -44
right_child=3 5 25 4 19 13 12 -9 52 -11 -12 23 27 58 15 48 -18 42 -20 -21 21 34 32 30 -26 -27 -28 -29 65 38 -32 33 36 -35 -36 78 37 39 46 40 -42 -43 45 -45 70 57 62 -49 53 74 -52 -53 -54 60 55 -57 -58 -59 -60 -61 64 77 -64 68 -66 -67 -68 -69 -70 -71 71 -73 -74 -75 -76 -77 -78 -79 -80 -81 81 -83 -84
leaf_value=0.094647189600127163 -0.052676182051221737 -0.0066590073988421119 -0.060270989384707874 0.10129924340618594 -0.028546025539709044 -0.06511348068462236 0.10323478508979804 0.10087926410674822 0 -0.040873049056653912 -0.051489325378511148 0.04408897139475744 -0.049836943107113368 0.0055315854171549403 -0.069484399822271156 0 -0.069093548657535198 0.02846279599950419 0.059690295638864008 0.043270221157321161 -0.021700810026187595 0 -0.026112146912582217 -0.0043664424583442106 0.07534905043248219 0.025018368935949969 0.010765974280878429 0.032340171534913545 -0.0038543922223598691 -0.047045702211575433 -0.047881498469150449 0 -0.065184030919128153 -0.066680253251563515 -0.059524143242046086 -0.0028352924499444715 0 -0.060808596130209558 0.0050617903245299481 -0.0064489333990678018 -0.045788733486805427 0.034704750591808269 0 -0.047338634988299662 -0.050732081480563004 0 -0.034451876832416031 0.0063652206525288075 0.015452323629166735 -0.049742706006346123 0 -0.057275366800798873 -0.060452331846237307 -0.010214273539022139 -0.035639758027787329 0 -0.016215683787733613 -0.018701593349465626 0.040110475304569182 0.019405450170983083 0.023956180062455812 -0.014853353457499349 0 -0.018800642587789657 0 0.0096069669446321414 0.013166688219634178 -0.012860376121933971 0 -0.053119859396399745 0 -0.034535739112337184 0 0.026488214409466873 -0.0070101453263886494 0 -0.012547801667628629 0 0.0054617432060131586 -0.060588133159944102 -0.0013226628752603272 -0.026431632825048231 -0.024792890464490361
leaf_weight=1064.888975456357 143.65049315989017 13.752486214041708 195.34306725859642 773.17237456142902 25.521293185651302 341.65607082098722 258.02274820208549 1556.6845065653324 10.40665467083454 50.907808572053909 32.180167600512505 111.4012114405632 16.668993599712849 33.938410684466362 330.46389001607895 23.51239025592804 897.64621527493 21.614145621657372 14.001890853047369 12.857725292444227 65.379938028752804 18.68502551317215 22.926250368356705 29.236197978258133 13.596534334123133 10.459469273686407 20.451238557696342 30.268806785345078 16.69559121131897 278.83892191201448 32.727420523762703 10.307661794126032 171.71138922125101 974.99181851744652 125.1833555996418 13.649833269417288 31.08936483412981 225.203553840518 11.731488659977911 68.009519413113594 1536.8433448374271 22.086791694164276 13.42034827172756 170.19781390577555 44.953364349901676 25.057194828987122 28.349834933876991 21.040235593914986 13.078139901161192 42.492241077125072 12.482282370328901 95.42779753357172 217.40291984379292 25.841507747769356 47.340614914894104 15.138910658657549 21.427788436412811 13.495418548583983 30.690733730792999 16.589915424585342 16.3382942378521 17.906220823526386 18.053573042154312 40.322916880249977 13.00060999393463 83.607728600502014 40.342108950018883 17.013754025101662 13.229037970304487 324.16193005442619 28.468680128455162 88.614976465702057 12.861246913671492 14.765846952795981 16.333210349082947 21.166557155549526 17.993533752858639 12.226127743721007 15.76621390879154 96.687569841742516 32.423959672451019 31.082107439637184 29.439096793532372
leaf_count=4429 1120 87 1607 3207 187 2735 1062 6446 66 373 244 475 130 180 2693 160 7634 134 72 67 479 124 148 175 63 60 114 143 84 2131 222 61 1393 8321 982 93 228 1840 87 409 11778 92 90 1288 330 168 210 126 88 310 83 747 1759 176 326 106 150 91 138 81 109 126 133 281 88 439 259 114 89 2530 194 640 86 99 111 139 123 86 105 761 242 236 208
internal_value=-0.000854182 0.0404455 0.0730475 -0.0326646 -0.00668199 -0.0157091 0.014265 0.0828154 0.0622884 0.0862857 0.0948323 -0.0211673 0.0878231 -0.0469083 -0.0494519 -0.0518279 -0.054098 -0.0227424 -0.0485323 -0.0534275 -0.0543066 -0.0557594 -0.0492732 0.0139319 0.00284053 -0.0521869 0.0923832 0 0.0268204 -0.0528368 -0.0177063 -0.0626482 -0.0459894 -0.0660096 -0.0405658 -0.0341905 -0.046724 -0.0449048 -0.0437874 -0.0464782 -0.0442755 0.093687 0 -0.0368901 -0.0275157 -0.00351584 -0.0146504 -0.00555496 -0.0192674 -0.0323365 -0.041853 -0.0445451 -0.0585059 -0.0109233 -0.0174206 -0.0275271 -0.0571187 0.00063242 0.0259911 0 0 0 -0.0246252 -0.0079458 0.0120483 0.00500745 0.0053144 0 -0.0144507 -0.0519595 -0.0346759 -0.0260522 0.00516735 0.00935393 -0.0422111 -0.00313925 -0.00626954 -0.0105266 0 -0.0470558 -0.0423446 -0.0175441 -0.0205553
internal_weight=11514.6 5006.64 3170.06 6507.95 2560.6 1836.59 933.133 2942.83 1386.14 1158.33 805.353 628.172 304.961 903.453 3947.36 3615.7 3372.49 331.66 2474.84 1755.24 1742.39 1703.27 2460.84 290.258 39.1178 227.23 1107.43 46.9378 211.705 838.824 78.5535 1158.59 2130.38 985.299 544.679 419.496 2086.41 1914.7 497.167 1830.06 1604.85 1086.98 188.009 390.08 219.882 166.395 58.1349 43.9665 243.208 82.3378 173.29 160.808 227.81 160.87 105.69 62.4795 216.771 123.536 64.6291 45.8261 55.1804 43.2105 46.4034 84.6413 29.3389 100.303 110.04 69.698 53.552 337.914 162.037 117.084 52.6843 39.823 58.8255 57.8451 36.6786 30.1323 29.416 439.033 342.345 63.5061 42.8594
internal_count=75600 27377 15096 48223 17477 12281 5428 13279 6833 5008 3451 4093 1335 6853 30746 28377 26691 2369 19057 14026 13959 13709 18985 1476 250 1817 4635 273 998 6535 478 9691 16292 8382 4018 3036 16018 14625 3800 14027 12187 4521 1249 2838 1550 1115 430 274 1686 581 1309 1226 1825 1105 732 432 1757 817 318 256 373 300 343 598 197 523 726 467 370 2617 1164 834 353 267 421 386 247 212 198 3370 2609 478 298
is_linear=0
shrinkage=0.0603639


Tree=11
num_leaves=100
num_cat=0
split_feature=5 0 66 0 21 0 0 13 10 69 66 69 37 18 47 0 43 49 66 46 0 12 21 24 42 76 69 37 0 9 9 25 20 13 30 13 19 21 76 25 25 38 42 42 37 0 21 21 37 37 53 20 10 10 21 22 26 26 22 42 22 75 36 13 66 21 18 13 25 20 42 42 42 42 42 42 53 5 5 18 38 66 66 66 66 66 0 20 17 37 20 20 5 42 42 14 21 3 18
split_gain=3778.53 2275.74 1133.03 1518.28 961.78 433.86 605.881 396.82 822.342 259.81 1408.11 174.491 157.929 133.961 102.758 100.596 84.2736 55.0042 51.0243 47.5469 77.0812 57.841 53.43 34.7656 26.1263 25.137 19.1434 18.013 17.5539 16.0201 21.6667 15.47 15.1256 14.7942 13.7105 21.9626 11.9956 24.0936 16.0402 11.3641 11.2207 8.14831 6.43378 20.1963 6.01135 5.65684 5.54771 5.09938 5.08198 4.04568 3.70078 10.8616 3.35328 4.02412 3.0835 3.00956 2.93945 15.316 2.87849 2.72559 2.3621 2.31997 2.2884 5.21144 2.10764 4.03207 2.02559 1.95678 1.79257 1.66799 1.64278 4.99519 1.40707 2.4054 16.0913 2.01919 1.23496 1.9539 1.91079 1.21962 1.05095 0.719371 2.21066 20.4934 1.16121 5.43295 0.719107 0.548981 1.2572 0.397693 0.378725 1.73004 0.129971 0.112779 0.312888 0.108414 0.0589399 0.0396976 0.00253073
threshold=21.000000000000004 80.500000000000014 26144.500000000004 124.00000000000001 50511405.000000007 11009.000000000002 8074.5000000000009 35.083333335000006 184.78952240030003 30.000000000000004 1023.5000000000001 22.000000000000004 5882.3529410882511 809824.96957302664 1.0000000180025095e-35 8081.0000000000009 85.333333331650024 1.0000000180025095e-35 8119.0000000000009 1.0000000180025095e-35 3388.5000000000005 62.500000000000007 1160747.5000000002 718.50000000000011 8.7976608930500024 57429315.500000007 22.000000000000004 333333.3333166666 50609.500000000007 25.666666668350004 10.333333331650001 4843833.5000000009 18.500000000000004 225.85714287857147 42434.500000000007 225.85714287857147 10000064.500000002 5903281.0000000009 10099789.000000002 299.50000000000006 73254.000000000015 52631.57894736842 16.165807538654764 18.475208612034013 0.094187420500000021 51203.500000000007 900.50000000000011 207.50000000000003 0.95484509100000003 58823.529410882358 129.75595238095241 6.5000000000000009 26.870057687550005 27.002760170956208 1160747.5000000002 4293092.4681428559 116908154.50000001 117000178.00000001 1352838.3750000002 15.367547602272328 33051.250000000007 45358.533955843661 270.00000000000006 255.65000000000003 230.50000000000003 732.50000000000011 250650.55456467337 49.222222221100004 47.500000000000007 204.50000000000003 8.7635609200913311 8.6602540379000015 18.487604307050002 32.331615072300004 31.767908337650002 73.900834458150015 70.970588235300013 43.500000000000007 36.500000000000007 256078.922355863 90909.090909090926 219.50000000000003 2238.5000000000005 5155.0000000000009 63282.500000000007 63998.000000000007 145.00000000000003 311.50000000000006 366.16666665000008 3397.1238118856004 333.50000000000006 609.50000000000011 874.50000000000011 16.209139939698389 17.957522953100003 651.38054143230011 112640029.00000001 2.5000000000000004 251896.4357
decision_type=2 2 2 2 2 2 2 2 2 2 2 2 2 2 2 2 2 2 2 2 2 2 2 2 2 2 2 2 2 2 2 2 2 2 2 2 2 2 2 2 2 2 2 2 2 2 2 2 2 2 2 2 2 2 2 2 2 2 2 2 2 2 2 2 2 2 2 2 2 2 2 2 2 2 2 2 2 2 2 2 2 2 2 2 2 2 2 2 2 2 2 2 2 2 2 2 2 2 2
left_child=1 4 7 68 9 6 11 8 29 10 31 86 13 -12 28 -8 24 19 27 21 36 34 -22 -10 70 61 -17 -13 -7 30 45 -1 47 58 40 67 37 39 -38 50 44 81 60 93 -18 59 -34 -31 -11 -43 -21 -52 -32 -54 97 95 -57 -58 -24 -2 -23 96 -39 92 -49 -66 -37 -36 -4 -16 71 -9 -45 74 -74 -75 78 -78 90 98 -51 -30 -83 -84 -85 -86 -3 -79 -89 -80 -26 -92 -64 -44 -95 -40 -6 -20 -68
right_child=2 5 3 -5 25 14 15 16 23 48 12 18 -14 -15 69 26 17 -19 54 20 22 42 33 -25 76 -27 -28 -29 41 32 52 -33 46 -35 35 66 38 62 55 -41 -42 49 43 72 -46 -47 -48 64 -50 80 51 -53 53 -55 -56 56 57 -59 -60 -61 -62 -63 63 -65 65 -67 79 -69 -70 -71 -72 -73 73 75 -76 -77 77 87 89 -81 -82 82 83 84 85 -87 -88 88 -90 -91 91 -93 -94 94 -96 -97 -98 -99 -100
leaf_value=-0.064346692986398349 -0.046159500202092661 -0.0063122881838687207 0.042775388007778949 -0.066348594549239429 -0.064741660448571214 -0.06464386138776812 0.098900673904367881 -0.043804079116270121 0.096574397616494945 0.036623118935237065 0.0980683052375 0.039645304950586366 -0.036949910716896704 -0.040516916885253704 0.0051952227283057909 -0.04863563834643797 -0.017788287761642547 0.025447017754379207 -0.051236265161731701 -0.052974261399485897 0.063592814011337137 -0.066831924946998869 -0.064751422501585915 0 -0.0041717760145141697 0.023435382600043655 0.030104045876902196 0.0006937264987451683 -0.035726403162170309 -0.03309164533291347 -0.061465437686239272 0 -0.00042682008997133194 -0.034840076238602184 -0.033459915590127079 -0.039211579494724855 -0.063330385443604392 0 0.0003633519196378164 0.017664709304299184 0 0.0020743241112586371 -0.00030212462073469555 -0.065987084501330562 -0.067269542074852876 0.0065499127435490918 -0.054070226937562242 0.020376815326186931 0.097399455341060759 -0.032598275985560338 -0.027341245314312087 0.015331485988101301 0 -0.042763773584576094 -0.0015751625397262515 -0.035748540703882462 0.029626506948364644 -0.030265737097738048 -0.0049510888129615585 0 -0.0048813164493525839 -0.015447189079189006 0 0.055383645599346588 0.0057120705487372879 -0.020546579018491364 -0.00073943211572447746 -0.061724448799966011 0.098044450050881388 0.037323373532485139 -0.061366483303772819 0 -0.038685329814655472 -0.048402532235876428 0.0099412511433205394 -0.032246693630058582 0.014247033546890331 -0.0084726600838510475 -0.021605637289387296 -0.019832304411295437 0 -0.058828549124007708 0.025392129741808739 -0.057065002254567711 0 -0.040875520556082991 -0.05187003147413128 0.017413499376707591 -0.0024264053760169367 0 0.022815645866651604 0 0.0076950972477915162 -0.024293354734796224 0 -0.0049223202573421988 -0.033891001994171839 -0.0043930099163470076 0
leaf_weight=264.21949119865894 14.724915951490404 13.699598804116247 20.391353577375412 342.80589716881514 144.42816016077995 312.30224866420031 253.26815462112427 19.516304984688759 223.21023118495941 19.562475889921188 1029.7161419391632 146.79345545172691 31.005889922380447 22.987750254571438 34.02905347943306 16.096985168755054 23.244968555867672 29.415355145931244 29.044167950749397 25.373575687408447 11.009040199220179 122.8314203619957 381.06633966416121 18.347841516137123 19.916581064462662 10.569309651851652 30.63146884739399 79.250835970044136 172.67510203272104 20.69492706656456 272.67335978150368 11.846395730972288 18.14814330637455 137.1656836271286 56.821498408913612 22.187427289783955 43.465190023183823 13.394142478704451 21.202769368886948 17.504765346646309 10.551517091691492 12.255084477365015 38.454355821013451 65.927089378237724 1371.8596284538507 20.961125403642654 66.925418712198734 13.673179775476454 1505.7202031314373 28.806759223341942 96.518745288252831 19.40548600256443 14.805695414543154 14.663732327520846 23.047266349196434 46.785011671483517 19.623602047562599 44.403728768229485 11.8953850120306 14.510527923703192 11.089761704206465 21.202724933624268 16.080579735338691 18.669232338666916 30.842091739177704 34.693405710160732 15.667923197150229 272.53678276389837 505.79630650579929 31.06867727637291 32.941289626061916 21.031851902604103 196.75589223951101 935.7557488232851 19.341954633593559 139.81086752563715 38.117280662059784 26.868188083171844 24.598876491189003 23.769511178135872 18.546661622822285 175.48731341212988 12.004201970994471 50.793883815407753 10.664081178605558 15.741155780851839 312.32926939427853 13.525626778602598 18.579756930470467 13.440926626324652 12.857428058981897 14.87579323351383 13.724528536200522 23.33431288599968 27.080437958240509 14.984453693032263 42.608213409781456 12.711873427033423 29.130180761218071
leaf_count=2045 97 87 86 3087 1251 2621 1062 153 943 82 4317 635 219 179 180 130 173 165 207 196 61 1042 3419 105 133 60 143 419 1349 149 2359 73 111 988 442 174 353 89 143 112 76 91 256 525 12020 125 525 92 6364 219 691 132 107 118 136 333 135 309 93 94 91 150 102 111 175 225 106 2363 2134 138 262 167 1565 7425 154 1104 253 180 164 183 137 1412 87 405 86 128 2530 86 125 90 86 95 86 173 212 102 356 79 193
internal_value=-0.000884891 0.0388614 -0.0318465 0.0319554 0.0701325 -0.0152033 0.0136034 -0.0421188 -0.00192412 0.0794191 0.0596746 -0.0203171 0.0907498 0.0947741 -0.0456586 0.0839455 -0.0488066 -0.0507936 0.0130089 -0.0513695 -0.0384733 -0.0548904 -0.0536547 0.0899992 -0.0137852 -0.0510006 0 0.0271097 -0.0516237 -0.0437988 -0.0521692 -0.0613211 -0.0263465 -0.0566744 -0.0626155 -0.0500326 -0.0178179 -0.00673041 -0.0293022 -0.0199721 -0.0661615 -0.0428293 -0.045775 -0.0439142 -0.0666311 -0.00918211 -0.0455445 -0.00730331 0.0968049 -0.0148289 -0.0264107 -0.0180864 -0.0584634 -0.0216266 -0.0321777 -0.0172076 -0.0221285 -0.00806139 -0.0635643 -0.0280793 -0.0635483 -0.056025 0.023226 0.0292024 0 -0.00474924 -0.0192152 -0.0577056 0.0964549 0.0245084 -0.0439279 -0.0227176 -0.0458173 -0.0445439 -0.0332092 -0.0465612 -0.000167974 0.00298338 -0.00646388 -0.00877835 -0.0240383 -0.046053 -0.0517052 -0.0344708 -0.0470544 -0.0175534 -0.0507116 -0.00048854 0 -0.0164307 0 0.00591593 0.00363667 -0.0119819 -0.0160756 0 -0.0592357 -0.0430249 0
internal_weight=11187.1 4895.11 6291.98 868.994 3103.87 1791.25 916.873 5422.98 778.875 2885.06 1359.78 616.876 1083.71 1052.7 874.374 299.997 4644.11 4387.84 290.848 4358.42 952.272 3406.15 541.136 241.558 256.27 218.808 46.7285 226.044 809.276 537.317 352.339 276.066 184.977 530.127 1825.77 420.113 411.136 220.671 190.465 158.803 1405.66 496.974 1580.38 1446.46 1395.1 50.1966 85.0736 99.9036 1525.28 59.6085 141.298 115.924 302.143 29.4694 64.8033 147 110.812 64.0273 392.962 29.2354 133.921 208.239 61.8685 48.4743 79.2087 65.5355 90.755 329.358 526.188 65.0977 73.4894 40.5482 1357.59 1291.66 216.098 1075.57 182.78 97.0909 85.6896 68.5676 47.3534 437.366 264.691 89.2033 77.1991 26.4052 326.029 58.9736 32.1054 38.0398 47.6498 27.7332 29.8051 88.8691 50.4148 36.1872 187.036 41.756 44.7981
internal_count=75600 27377 48223 5307 15096 12281 5428 42916 5225 13279 6833 4093 4715 4496 6853 1335 37691 35897 1476 35732 7455 28277 4561 1048 1794 1817 273 1054 6535 4177 2900 2118 1277 4500 15730 3461 2894 1519 1375 1131 12269 3914 12547 11414 12193 316 636 641 6446 447 1019 823 2584 225 422 1022 777 444 3512 191 1133 1757 388 299 492 400 656 2805 2220 318 582 320 10773 10248 1719 8529 1212 644 568 482 356 3467 2118 706 619 214 2617 391 211 254 314 181 188 641 385 245 1607 286 299
is_linear=0
shrinkage=0.0603639


Tree=12
num_leaves=85
num_cat=0
split_feature=5 0 17 67 67 0 0 69 37 18 7 69 0 47 0 43 46 14 17 9 5 13 42 69 0 29 38 0 69 0 37 67 9 42 42 13 36 9 9 38 74 24 19 15 25 42 13 37 38 73 0 52 77 75 5 19 0 9 25 5 17 18 68 38 14 19 9 37 17 25 0 30 30 5 5 0 0 0 26 24 7 42 77 30
split_gain=3445.75 2067.3 769.166 655.678 2774.1 396.629 547.367 282.071 849.641 274.357 177.892 160.459 123.767 96.4437 92.5855 59.0914 63.8348 70.7486 55.2345 47.3073 40.4565 41.847 36.7471 26.3455 24.5405 21.5389 19.6338 17.5889 17.2963 14.7905 14.3043 12.7984 12.5684 11.4529 25.2359 10.7617 9.8595 8.53693 20.2273 7.89691 7.3329 9.54579 6.51009 4.96225 4.44682 4.04179 6.77835 3.99061 3.97377 3.77443 3.68205 3.58068 3.03506 2.72518 2.98424 2.17558 2.10475 1.67061 5.94042 1.6683 1.64512 1.47027 1.46523 1.30793 1.00166 0.976136 0.751965 0.75015 1.07582 0.654794 0.566045 0.549466 7.27989 0.512686 1.5369 0.462944 6.56644 0.920226 0.406859 0.350059 0.224316 0.0680592 0.0568681 0.0227233
threshold=21.000000000000004 80.500000000000014 53331060.500000007 212.00000000000003 230.50000000000003 11009.000000000002 8074.5000000000009 30.000000000000004 4484.3049328677016 809824.96957302664 640.50000000000011 22.000000000000004 42.500000000000007 1.0000000180025095e-35 8081.0000000000009 85.333333331650024 1.0000000180025095e-35 68.434548166300019 1536.4166665000002 157.10000000000002 353.50000000000006 225.85714287857147 9.2663821689670076 26.000000000000004 443.50000000000006 4082620.5000000005 3.8589371785000002 50708.500000000007 22.000000000000004 435.00000000000006 4667.0819700155507 239.50000000000003 10.333333331650001 16.165807538654764 17.897858342439203 233.84868421055003 150.00000000000003 25.666666668350004 28.022580645150004 52631.57894736842 10627209.500000002 10000064.500000002 570.50000000000011 115260.61180233855 25.500000000000004 317.78561040735002 57.055555555000005 58823.529410882358 2590.6735751295173 11376.500000000002 51203.500000000007 1.0000000180025095e-35 10072120.500000002 234541.30891193752 549.50000000000011 132905.00000000003 443.50000000000006 64.021739130450015 54.500000000000007 36.500000000000007 244.08333335000003 252036.37320123953 12.500000000000002 90909.090909090926 504.44428003210004 56321338.000000007 45.961538461550006 3159.5576619636508 297.08333335000003 20.500000000000004 145.00000000000003 107909.50000000001 109503.00000000001 39.500000000000007 43.500000000000007 56418.000000000007 53762.500000000007 54880.500000000007 769.50000000000011 1075164.5000000002 680.50000000000011 466.92228798025002 5913275.0000000009 28111.000000000004
decision_type=2 2 2 2 2 2 2 2 2 2 2 2 2 2 2 2 2 2 2 2 2 2 2 2 2 2 2 2 2 2 2 2 2 2 2 2 2 2 2 2 2 2 2 2 2 2 2 2 2 2 2 2 2 2 2 2 2 2 2 2 2 2 2 2 2 2 2 2 2 2 2 2 2 2 2 2 2 2 2 2 2 2 2 2
left_child=1 2 7 15 10 6 11 8 9 12 -5 70 55 27 -8 18 17 19 43 22 24 25 -17 30 31 51 42 -7 -16 -25 -13 -6 50 78 59 36 61 -36 -39 75 41 49 -14 -2 -10 46 -18 -41 -45 -27 -24 -22 -11 54 69 -1 -31 58 -55 -35 -50 79 -48 -49 -56 -4 -61 -62 73 81 -3 83 -73 -69 -75 76 -29 -78 -34 -23 -66 -47 -51 -38
right_child=3 5 65 4 20 13 14 -9 44 52 -12 23 26 -15 28 16 45 -19 -20 -21 21 35 32 29 -26 40 -28 39 -30 56 -32 -33 33 34 37 -37 71 38 -40 47 -42 -43 -44 48 -46 53 62 63 60 82 -52 -53 -54 57 64 -57 -58 -59 -60 66 67 -63 -64 -65 80 -67 -68 68 -70 -71 -72 72 -74 74 -76 -77 77 -79 -80 -81 -82 -83 -84 -85
leaf_value=0 0.026409710378701611 -0.0059826550915474501 -0.059356573548321516 0.093692470726426905 0.011848271982609867 -0.063258483189798376 0.095134014308398268 0.093407389555749079 0 -0.045333952156267732 -0.049521631101409204 0.038330534864222179 0.026397252647271156 0.023138839601317521 -0.047454964106117999 -0.068098974474913379 0 -0.067820965459141666 -0.050361470197225533 0.052804049855800159 -0.067276104951288412 0 -0.024102629772288622 0.03068489236937455 0.030017040629312992 0 0.010691472535394122 -0.04452233850403553 0.028055631061176159 -0.0083732404343170221 0.0040349452509748935 -0.041569755173737136 -0.066967333477773727 0 -0.058892362465589702 -0.046812206763057487 -0.0053736097052131983 -0.010733795207735637 -0.043540792904904362 0.0046495445612141717 0 -0.056967549000179654 0.088171468734491179 -0.019661343212457605 -0.058798358360871973 -0.013515885856579162 -0.055642233144459131 -0.032039336526060169 -0.016402445701192911 0 0.005617471662535194 -0.043799328721130439 0 0.033522519732112017 0 -0.041660688193432452 -0.04525134687429886 -0.013759156984612518 -0.0074255978881790181 -0.017204229431991 0.01066361463488796 0.0092778530958809134 0 0 -0.032289798543267946 -0.0023686841370921165 0 0 -0.01222230251531266 0.0023899799457631657 -0.050639266871158765 0 -0.032882772757403381 0.021604029327208667 0 -0.058530488874818272 0 -0.023509899960813756 -0.020157572531555604 -0.01814707304263783 0 0 -0.029994238616089856 -0.055762370271813279
leaf_weight=12.460323780775072 21.963075563311577 13.649481669068335 156.35438892990351 741.13791725039482 12.307737208902834 311.61777602136135 247.62154406309128 1494.1904007643461 12.669937327504156 55.941076226532459 30.087934993207455 113.48582902550697 18.630065247416496 65.518348231911659 15.5484422147274 299.09064791351557 23.064907692372799 812.51204230636358 133.92520259320736 14.33519162237644 789.85985206067562 23.76057456433773 22.254584237933159 13.829676419496534 28.74148328602314 16.04879304766655 19.865646958351135 261.99670109897852 30.96065466105938 32.05458827316761 101.00640863180161 72.787542134523392 139.41840413957834 30.18357302993536 207.0278444737196 273.2641950622201 11.819942906498907 93.481525339186192 1417.1304911375046 11.78832523524761 16.417349144816399 65.225381478667259 1015.7886957675219 41.228087551891804 196.65180778503418 12.497220307588579 31.116559118032455 27.074259862303734 12.948250144720076 12.209973409771917 21.18956632912159 98.661665178835392 12.837241545319555 19.186528325080872 12.910504199564455 19.090814910829067 30.938214085996151 18.6075434461236 18.328379385173321 39.418459005653858 42.145024806261063 19.809453815221786 11.421305902302263 18.053573042154312 41.119658015668392 10.083460345864294 13.200241744518278 17.433642625808716 16.872356995940208 21.938021332025528 300.98946354538202 27.833519041538239 83.464819841086864 17.418802857398987 18.054719880223274 89.07967472076416 31.464629642665386 29.606424361467361 17.318112023174763 13.452730819582937 12.196725040674208 15.067937776446341 28.704889521002769 31.80984840542078
leaf_count=77 134 87 1423 3207 79 2735 1062 6468 84 416 244 475 79 318 130 2693 160 7634 1120 72 7461 155 148 61 170 118 112 2131 143 195 523 559 1248 228 1840 2216 89 622 11565 87 119 560 4379 292 1741 90 244 210 88 90 126 881 97 126 91 146 222 132 125 281 268 131 79 133 294 74 89 117 114 152 2530 194 631 115 121 761 242 236 145 93 86 107 230 250
internal_value=-0.000918742 0.0374592 0.0676571 -0.0310567 -0.00636405 -0.0147182 0.0129667 0.0750414 0.0546831 0.0750505 0.0877296 -0.019525 0.0825274 -0.0444229 0.0805162 -0.0470453 -0.0494669 -0.0518017 -0.0209203 -0.0460422 -0.0511662 -0.0538389 -0.0467887 0.012091 -0.0134034 -0.0611674 0.0861149 -0.0504235 0 -0.0162972 0.0233936 -0.0310343 -0.0434454 -0.0441848 -0.0423311 -0.0377251 -0.0246978 -0.0439304 -0.0416778 -0.0412523 -0.0345622 -0.0396237 0.08732 0 -0.0563224 -0.0176246 -0.0323733 -0.0131149 -0.00339424 -0.0149168 -0.00452509 -0.0649986 -0.0389885 -0.0104369 -0.0156887 -0.0288648 -0.0306917 0 0.00777122 -0.00617486 0.00022847 0 -0.0465346 -0.0228822 -0.0242513 -0.0573623 -0.0131328 0.0044052 0 0 -0.049484 -0.0326019 -0.0240406 0.00474991 0.00917769 -0.0445141 -0.0397151 -0.0148181 -0.0634911 -0.00961237 -0.0281845 -0.00885198 -0.0251772 -0.0479176
internal_weight=10854.3 4770.85 3024.56 6083.41 2397.41 1746.28 900.084 2858.13 1363.94 1154.61 771.226 605.954 1085.84 846.2 294.131 3686.01 3364.02 3126.56 321.989 2314.05 1626.18 1512.34 2299.71 291.315 113.837 1027.13 1054.28 780.681 46.5091 76.8225 214.492 85.0953 2000.62 1957.18 1800.44 485.215 211.951 1717.64 1510.61 469.064 138.606 122.189 1034.42 188.064 209.322 237.455 65.6028 56.9162 166.101 56.9637 43.4442 888.522 68.7783 171.853 115.73 31.5511 62.9928 56.1225 37.5149 82.8023 124.873 57.0228 42.5379 45.1278 66.2269 166.438 52.6187 111.925 69.7795 49.5032 314.639 154.928 111.298 52.9072 35.4735 412.147 323.068 61.0711 156.737 37.2133 53.3164 27.5652 40.9149 43.6298
internal_count=75600 27377 15096 48223 17477 12281 5428 13599 7131 5306 3451 4093 4793 6853 1335 30746 28377 26691 2369 19057 14026 13218 18985 1476 808 9459 4570 6535 273 478 998 638 16292 16018 14625 3759 1543 14027 12187 3800 1117 998 4458 1249 1825 1686 483 430 1115 438 274 8342 513 1203 820 223 417 383 251 598 823 379 323 343 471 1497 370 735 467 349 2617 1164 825 353 236 3370 2609 478 1393 248 380 197 320 339
is_linear=0
shrinkage=0.0603639


Tree=13
num_leaves=107
num_cat=0
split_feature=7 0 66 0 2 0 0 55 10 66 66 2 66 35 23 47 0 43 46 0 9 23 35 0 20 74 42 27 0 47 42 42 55 9 9 20 25 35 37 76 23 76 25 37 30 55 36 16 0 23 21 0 2 10 10 24 26 26 26 25 55 55 22 23 7 55 42 0 66 23 42 42 66 66 66 42 42 42 42 21 2 74 25 20 16 0 7 6 6 30 30 74 43 43 43 2 7 6 37 15 23 9 16 20 10 7
split_gain=3138.25 1884.36 953.048 1268.59 797.127 362.932 496.253 338.579 678.81 210.777 799.844 385.91 129.838 122.634 104.621 90.0471 85.7637 77.4503 42.0452 72.4482 56.7421 32.8282 30.9321 26.8226 26.1092 22.7853 22.0342 18.9919 17.8201 16.9112 16.5693 21.5961 16.267 15.3088 20.4214 14.0746 13.0929 12.3831 12.2271 11.3599 23.0069 15.3876 12.4489 9.10205 7.74518 22.3058 6.59448 6.1888 9.84753 5.7182 5.05274 4.88994 4.4336 4.06737 3.91797 3.40708 4.97855 11.57 7.09637 3.22801 3.48027 29.0605 3.11257 3.01172 2.93783 3.97828 2.53702 2.43751 2.06095 3.79424 1.98885 4.94663 1.97537 2.12806 4.36252 1.75324 7.24598 2.32451 49.1733 1.74019 2.97582 2.63139 1.48492 1.46157 1.42676 1.37872 1.08016 1.67887 1.64241 0.876209 1.47501 0.862283 0.607682 28.223 5.20902 0.603819 0.541795 0.295451 0.26595 0.258519 0.231739 0.227133 0.193494 0.543408 0.103468 0.0440783
threshold=21.000000000000004 80.500000000000014 26144.500000000004 124.00000000000001 45405294.500000007 11009.000000000002 8074.5000000000009 35.083333335000006 184.78952240030003 26144.500000000004 241.50000000000003 308600.50000000006 127.50000000000001 26.000000000000004 12142.584122120001 1.0000000180025095e-35 8081.0000000000009 85.333333331650024 1.0000000180025095e-35 3388.5000000000005 51.025000000000006 417.28759880000001 22.000000000000004 435.00000000000006 543.50000000000011 56800000.000000007 8.7976608930500024 11825564.950000001 50609.500000000007 1.0000000180025095e-35 16.165807538654764 18.475208612034013 225.85714287857147 25.666666668350004 10.333333331650001 18.500000000000004 2311.5000000000005 50.000000000000007 4667.0819700155507 10000064.500000002 2591483.5115000005 10099789.000000002 299.50000000000006 64.424876446350012 42434.500000000007 225.85714287857147 102.00000000000001 86956.521739130432 53566.500000000007 112.42997820433054 900.50000000000011 51203.500000000007 116177016.50000001 26.870057687550005 27.002760170956208 10202745.000000002 116908154.50000001 117000178.00000001 117991610.50000001 171074.50000000003 172.03125000000003 187.07142855000004 1352838.3750000002 3893203.3650993006 197.50000000000003 469.33035715000005 15.367547602272328 443.50000000000006 250.50000000000003 533.79236565000008 8.7635609200913311 8.6602540379000015 63.500000000000007 63282.500000000007 63998.000000000007 35.218366420283594 34.815623145700009 57.157676649900004 57.510868538021228 112640029.00000001 53525594.000000007 56319833.750000007 47.500000000000007 204.50000000000003 666666.66668333358 54667.500000000007 41.500000000000007 58.500000000000007 52.500000000000007 164768.00000000003 66413.000000000015 56234176.500000007 5461.3333331666508 3475.7285714286004 320.33333333331672 268.50000000000006 37.500000000000007 48.500000000000007 3397.1238118856004 1359.5092841456001 273.65032430960008 55.716666666650006 5464.4808741584502 311.50000000000006 158.12540504270001 47.500000000000007
decision_type=2 2 2 2 2 2 2 2 2 2 2 2 2 2 2 2 2 2 2 2 2 2 2 2 2 2 2 2 2 2 2 2 2 2 2 2 2 2 2 2 2 2 2 2 2 2 2 2 2 2 2 2 2 2 2 2 2 2 2 2 2 2 2 2 2 2 2 2 2 2 2 2 2 2 2 2 2 2 2 2 2 2 2 2 2 2 2 2 2 2 2 2 2 2 2 2 2 2 2 2 2 2 2 2 2 2
left_child=1 4 7 82 9 6 13 8 33 10 12 29 -1 22 -13 28 -8 26 24 39 -21 -10 -3 -15 27 63 70 36 37 -12 -26 96 62 34 51 49 44 -7 -24 40 42 -41 46 -11 92 -46 -20 72 -49 -35 -37 66 -42 -36 -55 104 -57 -58 -59 60 -38 -62 -22 79 99 -66 -2 -25 -51 100 71 -9 -30 -74 -75 76 -33 -77 -79 80 -6 91 -4 -17 -40 -50 88 -88 97 90 -47 -81 93 94 -19 -18 -32 -28 -90 -48 -70 -71 -89 -104 -43 -98
right_child=2 5 3 -5 25 15 16 17 21 43 11 14 -14 23 -16 83 95 18 19 20 32 -23 38 67 30 -27 86 -29 47 -31 31 75 -34 35 53 50 59 -39 84 41 52 55 -44 -45 45 89 64 48 85 68 -52 -53 -54 54 -56 56 57 58 -60 -61 61 -63 -64 -65 65 -67 -68 -69 69 101 -72 -73 73 74 -76 77 -78 78 -80 81 -82 -83 -84 -85 -86 -87 87 102 98 -91 -92 -93 -94 -95 -96 -97 105 -99 -100 -101 -102 -103 103 -105 -106 -107
